<?xml version="1.0"?>
<opencv_storage>
<cascade>
  <stageType>BOOST</stageType>
  <featureType>LBP</featureType>
  <height>49</height>
  <width>49</width>
  <stageParams>
    <boostType>GAB</boostType>
    <minHitRate>9.9500000476837158e-01</minHitRate>
    <maxFalseAlarm>5.0000000000000000e-01</maxFalseAlarm>
    <weightTrimRate>9.4999999999999996e-01</weightTrimRate>
    <maxDepth>1</maxDepth>
    <maxWeakCount>100</maxWeakCount></stageParams>
  <featureParams>
    <maxCatCount>256</maxCatCount>
    <featSize>1</featSize></featureParams>
  <stageNum>17</stageNum>
  <stages>
    <!-- stage 0 -->
    <_>
      <maxWeakCount>3</maxWeakCount>
      <stageThreshold>-7.2812831401824951e-01</stageThreshold>
      <weakClassifiers>
        <_>
          <internalNodes>
            0 -1 15 -6321 -5804673 -628429882 -27332270 1283925319
            1782768398 -201198763 -139396239</internalNodes>
          <leafValues>
            -7.1811133623123169e-01 6.4452880620956421e-01</leafValues></_>
        <_>
          <internalNodes>
            0 -1 76 -3178737 780139771 -652488210 -523314961 -124035569
            1247517403 -251922492 -520356873</internalNodes>
          <leafValues>
            -7.4499821662902832e-01 5.9482246637344360e-01</leafValues></_>
        <_>
          <internalNodes>
            0 -1 28 -1048577 1258290415 -843233720 -430506505 -269000893
            -1031799178 -542122159 -137887881</internalNodes>
          <leafValues>
            -6.0483944416046143e-01 7.5554728507995605e-01</leafValues></_></weakClassifiers></_>
    <!-- stage 1 -->
    <_>
      <maxWeakCount>4</maxWeakCount>
      <stageThreshold>-1.3140335679054260e-01</stageThreshold>
      <weakClassifiers>
        <_>
          <internalNodes>
            0 -1 17 -285249921 -273942673 -603220854 -487653505
            1950053127 1953985075 -1035644315 -227215499</internalNodes>
          <leafValues>
            -7.2554743289947510e-01 6.0981595516204834e-01</leafValues></_>
        <_>
          <internalNodes>
            0 -1 83 -1879343345 137351135 -731142422 9885662 -209500328
            188985167 -365962396 -520159266</internalNodes>
          <leafValues>
            -7.3245263099670410e-01 5.6198930740356445e-01</leafValues></_>
        <_>
          <internalNodes>
            0 -1 31 -621551889 -422604034 -465048366 1081002951
            1494967043 -384883901 -244614106 -143130793</internalNodes>
          <leafValues>
            -6.2925356626510620e-01 6.3203465938568115e-01</leafValues></_>
        <_>
          <internalNodes>
            0 -1 66 -1201 -1427136705 -419490939 1795161791 -2108094
            -856162402 -111214844 -252445729</internalNodes>
          <leafValues>
            -5.9987992048263550e-01 6.9879108667373657e-01</leafValues></_></weakClassifiers></_>
    <!-- stage 2 -->
    <_>
      <maxWeakCount>5</maxWeakCount>
      <stageThreshold>-9.7037857770919800e-01</stageThreshold>
      <weakClassifiers>
        <_>
          <internalNodes>
            0 -1 5 1610579967 2145352631 -775433764 -2100786 722367483
            2143490181 1602813884 1349580981</internalNodes>
          <leafValues>
            -7.8857630491256714e-01 5.0629448890686035e-01</leafValues></_>
        <_>
          <internalNodes>
            0 -1 84 1072660279 645384623 -377229028 -488703107
            -609236422 -993279225 -687080204 -989921410</internalNodes>
          <leafValues>
            -6.1712557077407837e-01 4.9139791727066040e-01</leafValues></_>
        <_>
          <internalNodes>
            0 -1 20 -557847313 -825817669 1388434698 -227090595
            1642799999 1261110795 -20195755 -214762633</internalNodes>
          <leafValues>
            -5.8651298284530640e-01 5.3221780061721802e-01</leafValues></_>
        <_>
          <internalNodes>
            0 -1 100 -189 718786035 -2130522024 -1562685169 -91489984
            1451399567 1896543040 -29434469</internalNodes>
          <leafValues>
            -5.6403952836990356e-01 5.5431705713272095e-01</leafValues></_>
        <_>
          <internalNodes>
            0 -1 10 -1881265025 -716801598 1640248002 -49358206
            840499806 -628391797 999362599 -145687723</internalNodes>
          <leafValues>
            -6.3546401262283325e-01 4.7735229134559631e-01</leafValues></_></weakClassifiers></_>
    <!-- stage 3 -->
    <_>
      <maxWeakCount>4</maxWeakCount>
      <stageThreshold>-4.2471078038215637e-01</stageThreshold>
      <weakClassifiers>
        <_>
          <internalNodes>
            0 -1 18 -6295825 -7351877 -1832454190 -157617962 391280759
            2102266794 -742207372 -137035852</internalNodes>
          <leafValues>
            -7.0735651254653931e-01 4.9631309509277344e-01</leafValues></_>
        <_>
          <internalNodes>
            0 -1 74 769617679 268402537 -769731114 1683677150
            -1188046769 2132365515 -83103596 -189074442</internalNodes>
          <leafValues>
            -6.8838715553283691e-01 4.2365112900733948e-01</leafValues></_>
        <_>
          <internalNodes>
            0 -1 34 -1073780513 -495989274 -659892522 -834471970
            1074737991 442176103 2061628276 -54198795</internalNodes>
          <leafValues>
            -6.1795097589492798e-01 4.7886818647384644e-01</leafValues></_>
        <_>
          <internalNodes>
            0 -1 105 668413703 215958467 1081202432 -322186305
            -1044318306 138010755 -656162240 -655427095</internalNodes>
          <leafValues>
            -6.1987358331680298e-01 5.3150594234466553e-01</leafValues></_></weakClassifiers></_>
    <!-- stage 4 -->
    <_>
      <maxWeakCount>4</maxWeakCount>
      <stageThreshold>-1.3033403158187866e+00</stageThreshold>
      <weakClassifiers>
        <_>
          <internalNodes>
            0 -1 4 -53249 -203721986 -738070259 -576736808 1368077118
            -221568885 -651463828 -756636</internalNodes>
          <leafValues>
            -6.5569621324539185e-01 4.2809918522834778e-01</leafValues></_>
        <_>
          <internalNodes>
            0 -1 96 1073700639 -1880657793 -260382514 1649669767
            -308651946 -744365760 -221577564 -857411387</internalNodes>
          <leafValues>
            -5.7940715551376343e-01 4.6333318948745728e-01</leafValues></_>
        <_>
          <internalNodes>
            0 -1 26 1247243999 -10500651 -2108042947 -153160738
            -49588978 -654104568 -1727271101 -9022858</internalNodes>
          <leafValues>
            -5.4267841577529907e-01 4.8428976535797119e-01</leafValues></_>
        <_>
          <internalNodes>
            0 -1 86 579804399 719013575 -1006516646 -968207635
            -660733886 -384810343 844100196 -86183436</internalNodes>
          <leafValues>
            -6.0935395956039429e-01 4.6797567605972290e-01</leafValues></_></weakClassifiers></_>
    <!-- stage 5 -->
    <_>
      <maxWeakCount>6</maxWeakCount>
      <stageThreshold>-1.3402382135391235e+00</stageThreshold>
      <weakClassifiers>
        <_>
          <internalNodes>
            0 -1 52 -237251588 1604276433 -719851026 2111787717
            -1149109512 583682058 -83313681 547154396</internalNodes>
          <leafValues>
            -6.2758618593215942e-01 3.9565217494964600e-01</leafValues></_>
        <_>
          <internalNodes>
            0 -1 54 -1411707521 -1362177032 1992912239 -1395994529
            -655752585 -607131623 -91267035 -16978108</internalNodes>
          <leafValues>
            -5.5340343713760376e-01 4.1122671961784363e-01</leafValues></_>
        <_>
          <internalNodes>
            0 -1 53 749669743 780898427 -800485413 -269561674 1489831522
            -262213426 -129312973 -2297903</internalNodes>
          <leafValues>
            -5.0392639636993408e-01 4.2416870594024658e-01</leafValues></_>
        <_>
          <internalNodes>
            0 -1 103 721366911 -2116620076 -687642558 -354540955
            -769936629 -1946507293 -642874762 -84082704</internalNodes>
          <leafValues>
            -4.6338737010955811e-01 4.8433440923690796e-01</leafValues></_>
        <_>
          <internalNodes>
            0 -1 94 -36834997 243321050 -1849601584 -905259836
            -945239661 -292961397 -238552747 -928528996</internalNodes>
          <leafValues>
            -5.2716922760009766e-01 4.1923311352729797e-01</leafValues></_>
        <_>
          <internalNodes>
            0 -1 87 -5107585 207443094 -1692307109 540485334 -810947072
            -1190421495 -477567959 955179000</internalNodes>
          <leafValues>
            -6.5263408422470093e-01 3.2979384064674377e-01</leafValues></_></weakClassifiers></_>
    <!-- stage 6 -->
    <_>
      <maxWeakCount>5</maxWeakCount>
      <stageThreshold>-7.9258865118026733e-01</stageThreshold>
      <weakClassifiers>
        <_>
          <internalNodes>
            0 -1 75 1006571375 1063116639 -204741905 600307662
            -202927930 -602680437 -101977140 -1996687378</internalNodes>
          <leafValues>
            -6.5182828903198242e-01 4.7072330117225647e-01</leafValues></_>
        <_>
          <internalNodes>
            0 -1 27 -285261825 -263787297 1720227423 -385941537
            -545296531 -11541643 -1155072226 -13207945</internalNodes>
          <leafValues>
            -5.1354366540908813e-01 5.3475898504257202e-01</leafValues></_>
        <_>
          <internalNodes>
            0 -1 9 1660626799 -540098116 -1696640097 -738282544
            1900362531 -630633580 1809152819 -143328268</internalNodes>
          <leafValues>
            -5.6339353322982788e-01 4.8155307769775391e-01</leafValues></_>
        <_>
          <internalNodes>
            0 -1 92 1476343311 64878623 -1140786325 954202087
            -1681756348 -95790325 -231759088 -1124800867</internalNodes>
          <leafValues>
            -5.8370500802993774e-01 4.4630116224288940e-01</leafValues></_>
        <_>
          <internalNodes>
            0 -1 44 -93107585 -430187433 1358994058 1405538319
            2076596567 -247791616 -1442431084 -93147020</internalNodes>
          <leafValues>
            -5.1643413305282593e-01 4.8987564444541931e-01</leafValues></_></weakClassifiers></_>
    <!-- stage 7 -->
    <_>
      <maxWeakCount>6</maxWeakCount>
      <stageThreshold>-1.3698979616165161e+00</stageThreshold>
      <weakClassifiers>
        <_>
          <internalNodes>
            0 -1 12 251613167 -645662513 -1857965422 -2170945 2146727933
            1146151660 -4752499 1899295989</internalNodes>
          <leafValues>
            -6.5193867683410645e-01 3.8233739137649536e-01</leafValues></_>
        <_>
          <internalNodes>
            0 -1 77 2147221423 618655676 -607805628 -840968273
            -138677449 -2001872486 -537134708 -2063616514</internalNodes>
          <leafValues>
            -4.6515789628028870e-01 5.1184660196304321e-01</leafValues></_>
        <_>
          <internalNodes>
            0 -1 99 -1614848211 248498111 -1589239022 680518278
            1964741552 -771505663 -245237888 -1460210828</internalNodes>
          <leafValues>
            -6.2693482637405396e-01 3.5065010190010071e-01</leafValues></_>
        <_>
          <internalNodes>
            0 -1 21 1190128111 1852370687 232767022 -826476818
            1111063639 1316323191 1995943527 -710411649</internalNodes>
          <leafValues>
            -4.0515497326850891e-01 5.3406971693038940e-01</leafValues></_>
        <_>
          <internalNodes>
            0 -1 30 -1989532502 -1467305506 -648330928 -1104888
            155409271 464224653 1528509191 -35827371</internalNodes>
          <leafValues>
            -6.3499480485916138e-01 3.1735306978225708e-01</leafValues></_>
        <_>
          <internalNodes>
            0 -1 3 -417340510 -1541532722 1161059587 -322395190
            1364660515 77939147 1133335079 -138052202</internalNodes>
          <leafValues>
            -5.1564955711364746e-01 3.6461690068244934e-01</leafValues></_></weakClassifiers></_>
    <!-- stage 8 -->
    <_>
      <maxWeakCount>9</maxWeakCount>
      <stageThreshold>-8.0678606033325195e-01</stageThreshold>
      <weakClassifiers>
        <_>
          <internalNodes>
            0 -1 2 -136846610 -538988083 -1861487777 -1751394398
            -649625705 -1056874069 1321958381 -9407372</internalNodes>
          <leafValues>
            -5.9613835811614990e-01 4.2174160480499268e-01</leafValues></_>
        <_>
          <internalNodes>
            0 -1 91 1499200440 936327943 -1992178494 400686655
            -246942799 -1269726189 -479333960 -1996556802</internalNodes>
          <leafValues>
            -5.7658350467681885e-01 3.4598416090011597e-01</leafValues></_>
        <_>
          <internalNodes>
            0 -1 35 -547784993 -588276106 -1694700161 -814762531
            -1288995025 -1245858177 -151539841 -272629761</internalNodes>
          <leafValues>
            -3.3557048439979553e-01 5.6959277391433716e-01</leafValues></_>
        <_>
          <internalNodes>
            0 -1 81 -607650985 1062404443 1897627775 168813451
            -394216631 2070268393 -24519900 -1436224681</internalNodes>
          <leafValues>
            -4.6157264709472656e-01 4.1069462895393372e-01</leafValues></_>
        <_>
          <internalNodes>
            0 -1 8 -1347486721 -9568824 2146429805 -8421704 1398110199
            805175295 1585272145 -43650633</internalNodes>
          <leafValues>
            -3.9084592461585999e-01 4.8323553800582886e-01</leafValues></_>
        <_>
          <internalNodes>
            0 -1 59 828223704 -766831502 805819657 -704211158 848490891
            1447667747 839559563 606404600</internalNodes>
          <leafValues>
            -6.1245995759963989e-01 3.1015402078628540e-01</leafValues></_>
        <_>
          <internalNodes>
            0 -1 24 -353382693 -395395353 -4227332 -1917936386
            -1175506848 -1132495018 -915325574 -8962179</internalNodes>
          <leafValues>
            -4.1177001595497131e-01 4.5531851053237915e-01</leafValues></_>
        <_>
          <internalNodes>
            0 -1 101 1000587025 526101951 139161948 -1914780776
            -1659735858 -134143999 -69299583 -1965431155</internalNodes>
          <leafValues>
            -5.2700871229171753e-01 3.5895353555679321e-01</leafValues></_>
        <_>
          <internalNodes>
            0 -1 98 1901045091 -1849188175 -1056583423 642352095
            -2146725871 -437745493 -779908669 -1193412227</internalNodes>
          <leafValues>
            -4.2024663090705872e-01 4.4319373369216919e-01</leafValues></_></weakClassifiers></_>
    <!-- stage 9 -->
    <_>
      <maxWeakCount>7</maxWeakCount>
      <stageThreshold>-9.2186832427978516e-01</stageThreshold>
      <weakClassifiers>
        <_>
          <internalNodes>
            0 -1 23 -962636049 -902016549 160236660 405600093
            -1734652409 -1828487089 -1880366222 -1545413769</internalNodes>
          <leafValues>
            -5.3333336114883423e-01 3.7062147259712219e-01</leafValues></_>
        <_>
          <internalNodes>
            0 -1 14 687811247 -485796646 -2147086225 1608401348
            1001066863 1225515291 31869015 -672859404</internalNodes>
          <leafValues>
            -5.4670232534408569e-01 3.2351425290107727e-01</leafValues></_>
        <_>
          <internalNodes>
            0 -1 113 -101714959 650086062 -746172076 1153662666
            -540348869 -1013081958 -1849036442 -923018053</internalNodes>
          <leafValues>
            -4.3626436591148376e-01 4.0992414951324463e-01</leafValues></_>
        <_>
          <internalNodes>
            0 -1 106 522132317 177946994 1212213791 571207685 -389529088
            -656277501 -1814895640 -117511473</internalNodes>
          <leafValues>
            -4.8525425791740417e-01 4.1036066412925720e-01</leafValues></_>
        <_>
          <internalNodes>
            0 -1 38 -393253633 1582520729 1074593862 276971555
            2047497287 1116241922 1536291651 -1085606031</internalNodes>
          <leafValues>
            -4.5799347758293152e-01 3.7713462114334106e-01</leafValues></_>
        <_>
          <internalNodes>
            0 -1 45 -1567947217 1778860191 -1877899160 1356206087
            -1476197761 -938786552 -131600352 -164958612</internalNodes>
          <leafValues>
            -6.1913555860519409e-01 2.8198578953742981e-01</leafValues></_>
        <_>
          <internalNodes>
            0 -1 41 -329531249 -884011002 -1740094529 -1428844398
            -209186642 -381089685 143144019 -171705677</internalNodes>
          <leafValues>
            -4.4414460659027100e-01 4.1972255706787109e-01</leafValues></_></weakClassifiers></_>
    <!-- stage 10 -->
    <_>
      <maxWeakCount>8</maxWeakCount>
      <stageThreshold>-6.4241945743560791e-01</stageThreshold>
      <weakClassifiers>
        <_>
          <internalNodes>
            0 -1 39 -7504129 -2385233 -536873219 -595657889 -1157665921
            -17827457 2146302079 -10751489</internalNodes>
          <leafValues>
            -3.2838982343673706e-01 5.5755394697189331e-01</leafValues></_>
        <_>
          <internalNodes>
            0 -1 102 591346447 196563791 -1050490862 1691337115
            1898703020 117670106 -10749028 -858785554</internalNodes>
          <leafValues>
            -4.8865234851837158e-01 3.7311261892318726e-01</leafValues></_>
        <_>
          <internalNodes>
            0 -1 73 64031045 256447699 403789127 -1562666671 -482731444
            -1031241717 -74859524 -118818113</internalNodes>
          <leafValues>
            -5.0938916206359863e-01 3.4836593270301819e-01</leafValues></_>
        <_>
          <internalNodes>
            0 -1 95 -677691841 253202497 -1073621657 579858713
            -1801840304 -612263884 -1606166187 -92348433</internalNodes>
          <leafValues>
            -4.4324868917465210e-01 3.9285102486610413e-01</leafValues></_>
        <_>
          <internalNodes>
            0 -1 16 1798236811 -1018789350 4661851 -1844813362 672207187
            931260679 -915765503 -162338202</internalNodes>
          <leafValues>
            -4.8934739828109741e-01 3.7025642395019531e-01</leafValues></_>
        <_>
          <internalNodes>
            0 -1 78 996091771 997917066 1359020543 1374675404 -133370576
            -212227966 1775022290 146549848</internalNodes>
          <leafValues>
            -6.0454958677291870e-01 2.9987841844558716e-01</leafValues></_>
        <_>
          <internalNodes>
            0 -1 51 257887311 1133381718 -1308075686 1520353372
            725832278 1263093779 799643715 -84870172</internalNodes>
          <leafValues>
            -6.0146182775497437e-01 2.9005116224288940e-01</leafValues></_>
        <_>
          <internalNodes>
            0 -1 97 253700455 261747641 -754397951 -1293961445 973190170
            1761611787 -1727106411 1953298389</internalNodes>
          <leafValues>
            -5.9274911880493164e-01 2.6916074752807617e-01</leafValues></_></weakClassifiers></_>
    <!-- stage 11 -->
    <_>
      <maxWeakCount>8</maxWeakCount>
      <stageThreshold>-8.1213766336441040e-01</stageThreshold>
      <weakClassifiers>
        <_>
          <internalNodes>
            0 -1 65 832012036 209171935 1505837513 75616549 -265575730
            -1513252734 -1944061009 -1996497745</internalNodes>
          <leafValues>
            -6.0576057434082031e-01 3.5627317428588867e-01</leafValues></_>
        <_>
          <internalNodes>
            0 -1 13 149171151 -2139828050 83927430 1659027468 1086596587
            -1333755510 -984927902 1395081847</internalNodes>
          <leafValues>
            -4.8994430899620056e-01 3.2598486542701721e-01</leafValues></_>
        <_>
          <internalNodes>
            0 -1 80 2045755648 -2033221552 1160108293 190142932
            -1155796583 -1463565654 -1022837040 202368412</internalNodes>
          <leafValues>
            -5.8032262325286865e-01 2.6720356941223145e-01</leafValues></_>
        <_>
          <internalNodes>
            0 -1 1 -1599689942 -1406733118 1292125204 -342895938
            1879446259 -1656684029 2050040627 -539135853</internalNodes>
          <leafValues>
            -5.1074558496475220e-01 3.0207726359367371e-01</leafValues></_>
        <_>
          <internalNodes>
            0 -1 56 927274256 1348502318 29622407 1955529000 1883922589
            -32911351 1902357379 216072123</internalNodes>
          <leafValues>
            -6.4567589759826660e-01 2.4635528028011322e-01</leafValues></_>
        <_>
          <internalNodes>
            0 -1 118 -903812400 -483643900 -1455718662 -194892604
            -2073633096 -554681548 45184942 -1186235254</internalNodes>
          <leafValues>
            -3.4784317016601562e-01 4.6157032251358032e-01</leafValues></_>
        <_>
          <internalNodes>
            0 -1 29 1257726975 1207992403 -1341011963 479316 386431083
            1042817029 939598763 -80590025</internalNodes>
          <leafValues>
            -5.0186991691589355e-01 3.1542727351188660e-01</leafValues></_>
        <_>
          <internalNodes>
            0 -1 57 1562140274 -1744534511 -1069415542 -1790377699
            1704084660 1074326146 -482340183 531618527</internalNodes>
          <leafValues>
            -4.2355096340179443e-01 3.8430011272430420e-01</leafValues></_></weakClassifiers></_>
    <!-- stage 12 -->
    <_>
      <maxWeakCount>9</maxWeakCount>
      <stageThreshold>-6.4170604944229126e-01</stageThreshold>
      <weakClassifiers>
        <_>
          <internalNodes>
            0 -1 82 -1207959657 738162670 98303103 -402658565 -267998
            -268443923 1792530029 -1379940357</internalNodes>
          <leafValues>
            -3.2881355285644531e-01 4.7317072749137878e-01</leafValues></_>
        <_>
          <internalNodes>
            0 -1 107 1066871563 -1572679466 -935227072 37018651
            -1826682294 -538378221 -1181566702 -50800223</internalNodes>
          <leafValues>
            -4.6045747399330139e-01 3.0351653695106506e-01</leafValues></_>
        <_>
          <internalNodes>
            0 -1 33 -1880192342 -944896792 1225869907 -2043066236
            1351576239 -1079033847 1514873745 -618589466</internalNodes>
          <leafValues>
            -4.8849323391914368e-01 2.7167749404907227e-01</leafValues></_>
        <_>
          <internalNodes>
            0 -1 79 659163550 548525285 -1068408440 -1503903722
            -517840689 -43483120 -534451309 -352810251</internalNodes>
          <leafValues>
            -4.3970435857772827e-01 3.4655052423477173e-01</leafValues></_>
        <_>
          <internalNodes>
            0 -1 36 -1869983268 -58064878 -1860075151 1326977091
            1485393435 -1659977600 -1081890069 -875835825</internalNodes>
          <leafValues>
            -3.6431574821472168e-01 4.0187242627143860e-01</leafValues></_>
        <_>
          <internalNodes>
            0 -1 90 -984226396 1070061215 311525525 673051330 -511284400
            1126404138 531177828 -626876353</internalNodes>
          <leafValues>
            -5.1713132858276367e-01 2.9863253235816956e-01</leafValues></_>
        <_>
          <internalNodes>
            0 -1 72 382670089 -908124139 51990851 -795448557 1814901423
            -543669118 -1431746389 -287777147</internalNodes>
          <leafValues>
            -4.1808053851127625e-01 3.8439172506332397e-01</leafValues></_>
        <_>
          <internalNodes>
            0 -1 25 -290789649 -50372609 -620788721 -1191936020 -4204946
            -185073809 -65911 -126615581</internalNodes>
          <leafValues>
            -3.6931309103965759e-01 4.2678838968276978e-01</leafValues></_>
        <_>
          <internalNodes>
            0 -1 117 1521478259 706071208 784037710 -252264460
            1341899093 -537137164 -683774159 -270800960</internalNodes>
          <leafValues>
            -3.6149349808692932e-01 4.5705324411392212e-01</leafValues></_></weakClassifiers></_>
    <!-- stage 13 -->
    <_>
      <maxWeakCount>10</maxWeakCount>
      <stageThreshold>-1.2432602643966675e+00</stageThreshold>
      <weakClassifiers>
        <_>
          <internalNodes>
            0 -1 85 2132277087 -1354165351 -1048478621 -1604611773
            1755889923 587850402 -1572613583 -1938300864</internalNodes>
          <leafValues>
            -4.1297936439514160e-01 3.4063261747360229e-01</leafValues></_>
        <_>
          <internalNodes>
            0 -1 104 729159483 741159301 -785750637 -861111103
            -746377208 -368840414 -774112975 -356721280</internalNodes>
          <leafValues>
            -4.7864308953285217e-01 3.1659173965454102e-01</leafValues></_>
        <_>
          <internalNodes>
            0 -1 109 -1729371609 2063572733 -822092109 -1762394147
            1566489856 -33761804 -635505100 -1157912785</internalNodes>
          <leafValues>
            -3.5215270519256592e-01 4.0092542767524719e-01</leafValues></_>
        <_>
          <internalNodes>
            0 -1 63 -1442882983 620732095 2129639151 369094143
            -269488428 -1342218305 -100696338 -1124083969</internalNodes>
          <leafValues>
            -3.2855221629142761e-01 4.4130191206932068e-01</leafValues></_>
        <_>
          <internalNodes>
            0 -1 67 287238266 764371920 1091634245 -1224240056 10527132
            797638800 -1845323296 -2106619846</internalNodes>
          <leafValues>
            -5.1281672716140747e-01 2.7290478348731995e-01</leafValues></_>
        <_>
          <internalNodes>
            0 -1 40 1095467342 -2073489403 416384049 -1974441919
            -2105295918 -232435712 1548555223 -1410103593</internalNodes>
          <leafValues>
            -3.9723357558250427e-01 3.7278592586517334e-01</leafValues></_>
        <_>
          <internalNodes>
            0 -1 62 -1149763431 -1576250463 705057195 -765832539
            413680975 1719887434 1268680260 -123695312</internalNodes>
          <leafValues>
            -4.8939532041549683e-01 3.3316305279731750e-01</leafValues></_>
        <_>
          <internalNodes>
            0 -1 48 -1824065250 -1069491130 -1072413982 -854470437
            1234747486 -1970910898 -255400469 -74752501</internalNodes>
          <leafValues>
            -3.9449581503868103e-01 4.3623259663581848e-01</leafValues></_>
        <_>
          <internalNodes>
            0 -1 11 1610755074 151388502 -520011562 -871443128 290062987
            -914321404 2131298678 -687277200</internalNodes>
          <leafValues>
            -5.3962236642837524e-01 3.1234464049339294e-01</leafValues></_>
        <_>
          <internalNodes>
            0 -1 61 789185838 -369086304 1082171624 -829947693
            -2096474056 -1949570993 -2104479115 -645209664</internalNodes>
          <leafValues>
            -5.4463702440261841e-01 2.5911617279052734e-01</leafValues></_></weakClassifiers></_>
    <!-- stage 14 -->
    <_>
      <maxWeakCount>10</maxWeakCount>
      <stageThreshold>-9.4575405120849609e-01</stageThreshold>
      <weakClassifiers>
        <_>
          <internalNodes>
            0 -1 111 520058417 651087942 63117380 -858853366 -1152931436
            -1433993049 -1689591104 -2066547795</internalNodes>
          <leafValues>
            -5.4495006799697876e-01 2.3392091691493988e-01</leafValues></_>
        <_>
          <internalNodes>
            0 -1 19 -925978737 -858111831 1346522508 -603791218
            1931620959 1091078209 1183557376 -177149163</internalNodes>
          <leafValues>
            -5.1536422967910767e-01 2.1962574124336243e-01</leafValues></_>
        <_>
          <internalNodes>
            0 -1 46 -1447162310 -784334585 537731345 -48955389
            1166147656 -2002124008 1880109488 -83484632</internalNodes>
          <leafValues>
            -5.0411939620971680e-01 2.6914235949516296e-01</leafValues></_>
        <_>
          <internalNodes>
            0 -1 114 -954860800 90543307 1358970881 675794971
            -1555263480 1476526146 -1324973440 752677836</internalNodes>
          <leafValues>
            -5.6538575887680054e-01 1.9683825969696045e-01</leafValues></_>
        <_>
          <internalNodes>
            0 -1 42 -58796034 -745591300 1335868459 -139509869
            -1099506613 -1107743108 -186936851 -1889</internalNodes>
          <leafValues>
            -2.0854771137237549e-01 6.2595200538635254e-01</leafValues></_>
        <_>
          <internalNodes>
            0 -1 88 -1546975864 583043073 -535371374 13414658 1652572226
            1426948110 -242635100 -94049515</internalNodes>
          <leafValues>
            -5.5880045890808105e-01 2.1045671403408051e-01</leafValues></_>
        <_>
          <internalNodes>
            0 -1 115 2109686306 541441031 537109826 -729479933 856084788
            176914615 1298258640 2006158839</internalNodes>
          <leafValues>
            -4.0433377027511597e-01 3.0301383137702942e-01</leafValues></_>
        <_>
          <internalNodes>
            0 -1 43 -243150096 1553728200 -1065348966 957305105
            -364619437 -746520433 -483476005 466291591</internalNodes>
          <leafValues>
            -3.7214100360870361e-01 3.4432548284530640e-01</leafValues></_>
        <_>
          <internalNodes>
            0 -1 58 196632044 -801082160 -804679268 432034648
            -1285502940 -1182789600 1904869811 491294825</internalNodes>
          <leafValues>
            -4.4123551249504089e-01 2.8493431210517883e-01</leafValues></_>
        <_>
          <internalNodes>
            0 -1 71 -636132023 21484678 67323156 508237697 -182192816
            -1576992095 1208719588 146831836</internalNodes>
          <leafValues>
            -6.1342585086822510e-01 2.1066349744796753e-01</leafValues></_></weakClassifiers></_>
    <!-- stage 15 -->
    <_>
      <maxWeakCount>10</maxWeakCount>
      <stageThreshold>-1.3723168373107910e+00</stageThreshold>
      <weakClassifiers>
        <_>
          <internalNodes>
            0 -1 112 -165686787 114312490 1175474308 1657929866
            325317569 -1744600815 -737941815 -989860967</internalNodes>
          <leafValues>
            -3.9655172824859619e-01 3.4328359365463257e-01</leafValues></_>
        <_>
          <internalNodes>
            0 -1 0 -1584790782 873120332 -1843298206 -661733350
            2084598611 1477157003 1283658851 -571128889</internalNodes>
          <leafValues>
            -5.0987315177917480e-01 2.9128572344779968e-01</leafValues></_>
        <_>
          <internalNodes>
            0 -1 60 -1340996303 -795409890 -1878900655 -1273822827
            755022064 1224810627 1174575496 1690398849</internalNodes>
          <leafValues>
            -4.9211886525154114e-01 2.7347147464752197e-01</leafValues></_>
        <_>
          <internalNodes>
            0 -1 116 1062587395 23011917 620794913 12800061 1610646336
            16810184 -443361024 -723527569</internalNodes>
          <leafValues>
            -3.8616749644279480e-01 3.6351788043975830e-01</leafValues></_>
        <_>
          <internalNodes>
            0 -1 37 -205534825 1556481788 -17989960 -1007570951
            -1749093098 1014300537 -749282938 -825452</internalNodes>
          <leafValues>
            -3.1050682067871094e-01 4.8090347647666931e-01</leafValues></_>
        <_>
          <internalNodes>
            0 -1 70 607599665 -1498472286 1895829671 180380255
            -906344439 -896352120 -25145499 -896399440</internalNodes>
          <leafValues>
            -5.3461736440658569e-01 2.9471206665039062e-01</leafValues></_>
        <_>
          <internalNodes>
            0 -1 47 802774527 -1505225440 -721272552 739265816 839190591
            -374832976 1644708318 -1950677882</internalNodes>
          <leafValues>
            -4.3650996685028076e-01 3.4937676787376404e-01</leafValues></_>
        <_>
          <internalNodes>
            0 -1 68 277090442 469913884 1493831680 479776788 1502339273
            1411092489 -1182715505 688891384</internalNodes>
          <leafValues>
            -6.0590320825576782e-01 2.6960352063179016e-01</leafValues></_>
        <_>
          <internalNodes>
            0 -1 89 358576978 1753839788 1082364176 -2008006263 127385
            -921615872 -2142664616 138440866</internalNodes>
          <leafValues>
            -5.4477405548095703e-01 3.0955663323402405e-01</leafValues></_>
        <_>
          <internalNodes>
            0 -1 49 105317554 -1113406331 872499663 -1927282306
            1845692650 -108920584 1074340754 -410971373</internalNodes>
          <leafValues>
            -4.5188087224960327e-01 3.6610147356987000e-01</leafValues></_></weakClassifiers></_>
    <!-- stage 16 -->
    <_>
      <maxWeakCount>11</maxWeakCount>
      <stageThreshold>-8.0001425743103027e-01</stageThreshold>
      <weakClassifiers>
        <_>
          <internalNodes>
            0 -1 32 -747700485 1827658748 666298489 -305791299
            -1095944345 -1627595009 -1107494309 -545409665</internalNodes>
          <leafValues>
            -3.1707316637039185e-01 3.6188435554504395e-01</leafValues></_>
        <_>
          <internalNodes>
            0 -1 55 500190974 1419037072 -1601895099 -1849488248
            1687164016 538968113 1365774473 459954416</internalNodes>
          <leafValues>
            -5.4183137416839600e-01 1.9507294893264771e-01</leafValues></_>
        <_>
          <internalNodes>
            0 -1 69 -1365061093 -132181625 -1862102868 -897527293
            1904887366 -1195290335 2007116371 -68411184</internalNodes>
          <leafValues>
            -3.7532764673233032e-01 2.7566796541213989e-01</leafValues></_>
        <_>
          <internalNodes>
            0 -1 110 1473208596 100651091 1074054226 550225159
            -150896348 1075871873 -687443440 -1265238086</internalNodes>
          <leafValues>
            -4.6329760551452637e-01 2.6092976331710815e-01</leafValues></_>
        <_>
          <internalNodes>
            0 -1 64 -172622470 -893730956 -32769 -1393918539 -1477143298
            1056751454 2130050815 490725215</internalNodes>
          <leafValues>
            -2.8133326768875122e-01 4.2037522792816162e-01</leafValues></_>
        <_>
          <internalNodes>
            0 -1 7 -359017845 -286359898 -5605574 -705501472 2133515627
            -269754386 1860711719 -1210060869</internalNodes>
          <leafValues>
            -2.8404375910758972e-01 4.5528727769851685e-01</leafValues></_>
        <_>
          <internalNodes>
            0 -1 22 -498276114 672203 1143078930 -603406310 -1069073868
            -762672126 -1532771502 1364618062</internalNodes>
          <leafValues>
            -4.2087969183921814e-01 3.2374298572540283e-01</leafValues></_>
        <_>
          <internalNodes>
            0 -1 108 331069253 -1370405883 -78343804 -1059946404
            -904566944 -381673461 1495431404 -2074658047</internalNodes>
          <leafValues>
            -5.1592773199081421e-01 2.2323560714721680e-01</leafValues></_>
        <_>
          <internalNodes>
            0 -1 93 527369484 1001385949 -1343361281 -109187281
            1608482477 -553844898 -50408362 -323623051</internalNodes>
          <leafValues>
            -3.0570769309997559e-01 4.1294473409652710e-01</leafValues></_>
        <_>
          <internalNodes>
            0 -1 50 -670694400 -250330035 -2130165499 2098037011
            822463393 -1833987925 1311261798 1981825149</internalNodes>
          <leafValues>
            -5.8778119087219238e-01 2.1535854041576385e-01</leafValues></_>
        <_>
          <internalNodes>
            0 -1 6 -523446088 -793215933 406789547 1447251929 -755571496
            -834967237 -1911525633 -1141160309</internalNodes>
          <leafValues>
            -2.2225876152515411e-01 5.6310355663299561e-01</leafValues></_></weakClassifiers></_></stages>
  <features>
    <_>
      <rect>
        0 0 5 6</rect></_>
    <_>
      <rect>
        0 0 7 5</rect></_>
    <_>
      <rect>
        0 0 9 16</rect></_>
    <_>
      <rect>
        0 1 4 6</rect></_>
    <_>
      <rect>
        0 1 9 14</rect></_>
    <_>
      <rect>
        0 1 16 15</rect></_>
    <_>
      <rect>
        0 2 1 1</rect></_>
    <_>
      <rect>
        0 2 4 4</rect></_>
    <_>
      <rect>
        0 2 7 5</rect></_>
    <_>
      <rect>
        0 7 5 7</rect></_>
    <_>
      <rect>
        0 7 5 10</rect></_>
    <_>
      <rect>
        0 8 4 4</rect></_>
    <_>
      <rect>
        0 12 14 12</rect></_>
    <_>
      <rect>
        0 14 3 9</rect></_>
    <_>
      <rect>
        0 15 5 4</rect></_>
    <_>
      <rect>
        0 18 9 3</rect></_>
    <_>
      <rect>
        0 19 3 3</rect></_>
    <_>
      <rect>
        0 19 6 5</rect></_>
    <_>
      <rect>
        0 21 8 2</rect></_>
    <_>
      <rect>
        0 24 4 4</rect></_>
    <_>
      <rect>
        0 25 5 3</rect></_>
    <_>
      <rect>
        0 27 3 4</rect></_>
    <_>
      <rect>
        0 28 3 6</rect></_>
    <_>
      <rect>
        0 31 4 3</rect></_>
    <_>
      <rect>
        0 31 4 6</rect></_>
    <_>
      <rect>
        0 31 5 3</rect></_>
    <_>
      <rect>
        0 31 7 5</rect></_>
    <_>
      <rect>
        0 31 7 6</rect></_>
    <_>
      <rect>
        0 33 4 2</rect></_>
    <_>
      <rect>
        0 34 8 5</rect></_>
    <_>
      <rect>
        1 3 8 5</rect></_>
    <_>
      <rect>
        1 35 5 3</rect></_>
    <_>
      <rect>
        1 40 4 3</rect></_>
    <_>
      <rect>
        2 0 8 4</rect></_>
    <_>
      <rect>
        2 11 5 3</rect></_>
    <_>
      <rect>
        2 40 5 3</rect></_>
    <_>
      <rect>
        2 45 6 1</rect></_>
    <_>
      <rect>
        3 33 1 1</rect></_>
    <_>
      <rect>
        3 39 3 3</rect></_>
    <_>
      <rect>
        3 39 4 3</rect></_>
    <_>
      <rect>
        4 0 5 2</rect></_>
    <_>
      <rect>
        4 2 7 2</rect></_>
    <_>
      <rect>
        4 34 1 1</rect></_>
    <_>
      <rect>
        4 45 3 1</rect></_>
    <_>
      <rect>
        5 28 5 5</rect></_>
    <_>
      <rect>
        6 23 6 3</rect></_>
    <_>
      <rect>
        7 20 6 6</rect></_>
    <_>
      <rect>
        7 40 7 3</rect></_>
    <_>
      <rect>
        7 46 2 1</rect></_>
    <_>
      <rect>
        8 0 7 3</rect></_>
    <_>
      <rect>
        9 4 7 6</rect></_>
    <_>
      <rect>
        9 14 4 3</rect></_>
    <_>
      <rect>
        10 0 13 12</rect></_>
    <_>
      <rect>
        10 17 2 2</rect></_>
    <_>
      <rect>
        10 22 1 2</rect></_>
    <_>
      <rect>
        12 26 7 6</rect></_>
    <_>
      <rect>
        14 8 8 11</rect></_>
    <_>
      <rect>
        14 21 6 6</rect></_>
    <_>
      <rect>
        14 29 7 5</rect></_>
    <_>
      <rect>
        15 9 8 8</rect></_>
    <_>
      <rect>
        15 14 6 5</rect></_>
    <_>
      <rect>
        18 21 1 1</rect></_>
    <_>
      <rect>
        18 31 1 1</rect></_>
    <_>
      <rect>
        19 5 10 7</rect></_>
    <_>
      <rect>
        19 16 4 6</rect></_>
    <_>
      <rect>
        19 25 10 8</rect></_>
    <_>
      <rect>
        20 0 9 3</rect></_>
    <_>
      <rect>
        20 39 9 3</rect></_>
    <_>
      <rect>
        21 23 5 5</rect></_>
    <_>
      <rect>
        22 18 1 1</rect></_>
    <_>
      <rect>
        23 24 1 1</rect></_>
    <_>
      <rect>
        24 1 6 5</rect></_>
    <_>
      <rect>
        24 13 1 1</rect></_>
    <_>
      <rect>
        24 16 7 3</rect></_>
    <_>
      <rect>
        24 22 8 2</rect></_>
    <_>
      <rect>
        25 4 8 15</rect></_>
    <_>
      <rect>
        25 21 8 2</rect></_>
    <_>
      <rect>
        25 32 8 5</rect></_>
    <_>
      <rect>
        25 34 3 5</rect></_>
    <_>
      <rect>
        26 20 1 1</rect></_>
    <_>
      <rect>
        26 34 7 5</rect></_>
    <_>
      <rect>
        27 0 7 5</rect></_>
    <_>
      <rect>
        27 43 5 2</rect></_>
    <_>
      <rect>
        28 14 7 5</rect></_>
    <_>
      <rect>
        28 25 7 5</rect></_>
    <_>
      <rect>
        28 40 6 3</rect></_>
    <_>
      <rect>
        29 20 2 2</rect></_>
    <_>
      <rect>
        30 2 6 5</rect></_>
    <_>
      <rect>
        30 23 1 1</rect></_>
    <_>
      <rect>
        30 35 6 4</rect></_>
    <_>
      <rect>
        31 0 6 4</rect></_>
    <_>
      <rect>
        31 0 6 14</rect></_>
    <_>
      <rect>
        31 3 6 6</rect></_>
    <_>
      <rect>
        31 20 4 3</rect></_>
    <_>
      <rect>
        31 36 6 4</rect></_>
    <_>
      <rect>
        32 6 4 3</rect></_>
    <_>
      <rect>
        32 23 3 3</rect></_>
    <_>
      <rect>
        33 19 4 3</rect></_>
    <_>
      <rect>
        34 0 5 5</rect></_>
    <_>
      <rect>
        34 0 5 11</rect></_>
    <_>
      <rect>
        34 7 5 3</rect></_>
    <_>
      <rect>
        34 18 5 10</rect></_>
    <_>
      <rect>
        34 20 5 6</rect></_>
    <_>
      <rect>
        34 27 1 1</rect></_>
    <_>
      <rect>
        34 32 1 1</rect></_>
    <_>
      <rect>
        35 26 4 3</rect></_>
    <_>
      <rect>
        36 9 3 3</rect></_>
    <_>
      <rect>
        36 26 1 1</rect></_>
    <_>
      <rect>
        36 34 4 5</rect></_>
    <_>
      <rect>
        37 0 4 6</rect></_>
    <_>
      <rect>
        37 11 4 5</rect></_>
    <_>
      <rect>
        37 28 4 7</rect></_>
    <_>
      <rect>
        37 34 4 4</rect></_>
    <_>
      <rect>
        37 35 4 3</rect></_>
    <_>
      <rect>
        40 6 3 10</rect></_>
    <_>
      <rect>
        40 11 3 3</rect></_>
    <_>
      <rect>
        40 11 3 4</rect></_>
    <_>
      <rect>
        40 34 3 4</rect></_>
    <_>
      <rect>
        46 36 1 1</rect></_></features></cascade>
</opencv_storage>
