<?xml version="1.0"?>
<opencv_storage>
<cascade>
  <stageType>BOOST</stageType>
  <featureType>LBP</featureType>
  <height>65</height>
  <width>49</width>
  <stageParams>
    <boostType>GAB</boostType>
    <minHitRate>9.9500000476837158e-01</minHitRate>
    <maxFalseAlarm>5.0000000000000000e-01</maxFalseAlarm>
    <weightTrimRate>9.4999999999999996e-01</weightTrimRate>
    <maxDepth>1</maxDepth>
    <maxWeakCount>100</maxWeakCount></stageParams>
  <featureParams>
    <maxCatCount>256</maxCatCount>
    <featSize>1</featSize></featureParams>
  <stageNum>17</stageNum>
  <stages>
    <!-- stage 0 -->
    <_>
      <maxWeakCount>2</maxWeakCount>
      <stageThreshold>-1.9216082990169525e-01</stageThreshold>
      <weakClassifiers>
        <_>
          <internalNodes>
            0 -1 5 1373067254 923914497 1140854899 -208469995 98554
            822181890 -1073119029 1938015175</internalNodes>
          <leafValues>
            -9.2781955003738403e-01 8.1603378057479858e-01</leafValues></_>
        <_>
          <internalNodes>
            0 -1 11 -783560197 -1252978607 1073750289 -583708541
            -1028879665 -1146813685 1342309249 1024541985</internalNodes>
          <leafValues>
            -9.5871794223785400e-01 7.3565870523452759e-01</leafValues></_></weakClassifiers></_>
    <!-- stage 1 -->
    <_>
      <maxWeakCount>2</maxWeakCount>
      <stageThreshold>-1.8860402703285217e-01</stageThreshold>
      <weakClassifiers>
        <_>
          <internalNodes>
            0 -1 46 -1612719713 53664923 290001179 722703109 -384834929
            -1710554933 -769603409 265013455</internalNodes>
          <leafValues>
            -9.0236222743988037e-01 7.5967079401016235e-01</leafValues></_>
        <_>
          <internalNodes>
            0 -1 3 -209815557 -651984509 -2129588159 -217104381
            -1065205583 143720578 -2136653421 -209754861</internalNodes>
          <leafValues>
            -8.4473788738250732e-01 7.1375817060470581e-01</leafValues></_></weakClassifiers></_>
    <!-- stage 2 -->
    <_>
      <maxWeakCount>2</maxWeakCount>
      <stageThreshold>-2.6940169930458069e-01</stageThreshold>
      <weakClassifiers>
        <_>
          <internalNodes>
            0 -1 7 -683224390 1595097091 196883 -552402927 -1743535205
            713556104 -2004318021 1962990249</internalNodes>
          <leafValues>
            -9.3377482891082764e-01 7.3354732990264893e-01</leafValues></_>
        <_>
          <internalNodes>
            0 -1 51 -70813315 -1219917247 -536870693 -1962721277 8624567
            -1876884846 1216448651 -1394937637</internalNodes>
          <leafValues>
            -8.6876201629638672e-01 6.6437309980392456e-01</leafValues></_></weakClassifiers></_>
    <!-- stage 3 -->
    <_>
      <maxWeakCount>2</maxWeakCount>
      <stageThreshold>-2.6243139058351517e-02</stageThreshold>
      <weakClassifiers>
        <_>
          <internalNodes>
            0 -1 35 21567829 -1692401799 -438125 -1140850689 -32771
            -16646145 -32788 -88539393</internalNodes>
          <leafValues>
            -6.6326528787612915e-01 8.1613510847091675e-01</leafValues></_>
        <_>
          <internalNodes>
            0 -1 4 -546411233 -687615331 -2147253861 1351979291
            -1073594191 537526306 -1874112307 -144740081</internalNodes>
          <leafValues>
            -8.4237819910049438e-01 6.6383498907089233e-01</leafValues></_></weakClassifiers></_>
    <!-- stage 4 -->
    <_>
      <maxWeakCount>2</maxWeakCount>
      <stageThreshold>-1.2800315022468567e-01</stageThreshold>
      <weakClassifiers>
        <_>
          <internalNodes>
            0 -1 54 -828516227 -771657725 -1056767983 -1694240318
            -939031557 -2147237759 -1005812847 -1898260209</internalNodes>
          <leafValues>
            -8.4256559610366821e-01 7.9725086688995361e-01</leafValues></_>
        <_>
          <internalNodes>
            0 -1 53 -510148609 -1533987849 -1279815435 -319321737
            -1959546641 -1555463431 -493904464 -324489028</internalNodes>
          <leafValues>
            -8.5664480924606323e-01 7.1456247568130493e-01</leafValues></_></weakClassifiers></_>
    <!-- stage 5 -->
    <_>
      <maxWeakCount>2</maxWeakCount>
      <stageThreshold>-1.7337147891521454e-01</stageThreshold>
      <weakClassifiers>
        <_>
          <internalNodes>
            0 -1 48 -45088769 622171392 -251423276 -1037860861
            -2012233512 -896694120 -1743732596 -992489336</internalNodes>
          <leafValues>
            -8.2524269819259644e-01 6.9805192947387695e-01</leafValues></_>
        <_>
          <internalNodes>
            0 -1 1 -686692710 -251199472 268435474 -721319933
            -1073512245 -2139095040 -1037336441 1934722575</internalNodes>
          <leafValues>
            -7.5516235828399658e-01 6.5187126398086548e-01</leafValues></_></weakClassifiers></_>
    <!-- stage 6 -->
    <_>
      <maxWeakCount>2</maxWeakCount>
      <stageThreshold>-2.4510425329208374e-01</stageThreshold>
      <weakClassifiers>
        <_>
          <internalNodes>
            0 -1 0 -573771298 -774581860 -2147413855 -708459509
            -784137781 -931102646 1091130062 -70950076</internalNodes>
          <leafValues>
            -8.4640002250671387e-01 7.1755099296569824e-01</leafValues></_>
        <_>
          <internalNodes>
            0 -1 16 -1726267393 -1751788267 -654208513 -1123069739
            -2046285585 -397899637 50428619 -12500859</internalNodes>
          <leafValues>
            -7.8908330202102661e-01 6.0129576921463013e-01</leafValues></_></weakClassifiers></_>
    <!-- stage 7 -->
    <_>
      <maxWeakCount>4</maxWeakCount>
      <stageThreshold>-1.5957037210464478e+00</stageThreshold>
      <weakClassifiers>
        <_>
          <internalNodes>
            0 -1 31 1337947327 -1342177776 -138412033 -268435537
            -4194305 -1883242497 -24458577 -863266657</internalNodes>
          <leafValues>
            -6.8057554960250854e-01 7.1255409717559814e-01</leafValues></_>
        <_>
          <internalNodes>
            0 -1 50 -640818656 1342197761 1090535427 827621408
            1073971232 -2147385088 -2139029350 -1596982833</internalNodes>
          <leafValues>
            -6.9448184967041016e-01 5.8369630575180054e-01</leafValues></_>
        <_>
          <internalNodes>
            0 -1 14 1205930723 1099530759 -805060607 1879408641
            -1072978275 196747 -939466549 1043283181</internalNodes>
          <leafValues>
            -7.8150844573974609e-01 4.7503533959388733e-01</leafValues></_>
        <_>
          <internalNodes>
            0 -1 12 1342296947 -586661631 1610678337 1526792194
            -2004123394 596148353 1090552463 864545154</internalNodes>
          <leafValues>
            -7.1731603145599365e-01 5.5686527490615845e-01</leafValues></_></weakClassifiers></_>
    <!-- stage 8 -->
    <_>
      <maxWeakCount>4</maxWeakCount>
      <stageThreshold>-2.0312979817390442e-01</stageThreshold>
      <weakClassifiers>
        <_>
          <internalNodes>
            0 -1 9 -98369 -16777217 -8454145 -65554 -8421514 -8388618
            -46729355 -55902384</internalNodes>
          <leafValues>
            -6.1238223314285278e-01 7.2719061374664307e-01</leafValues></_>
        <_>
          <internalNodes>
            0 -1 17 -1060487195 1029407505 13205555 289997059 -930313589
            -2010627025 -2104801183 -1394900055</internalNodes>
          <leafValues>
            -6.3455724716186523e-01 6.7175018787384033e-01</leafValues></_>
        <_>
          <internalNodes>
            0 -1 23 51140865 -1086237941 352327075 -45436908 713730423
            -5312231 -1467959196 -978552704</internalNodes>
          <leafValues>
            -7.7612179517745972e-01 5.4522550106048584e-01</leafValues></_>
        <_>
          <internalNodes>
            0 -1 57 -2091406789 750977316 -1072930328 -1540878059
            -963509165 -753745920 -88072032 -285410970</internalNodes>
          <leafValues>
            -8.0772322416305542e-01 5.4080635309219360e-01</leafValues></_></weakClassifiers></_>
    <!-- stage 9 -->
    <_>
      <maxWeakCount>4</maxWeakCount>
      <stageThreshold>-1.4935487508773804e+00</stageThreshold>
      <weakClassifiers>
        <_>
          <internalNodes>
            0 -1 13 -750054401 -112419570 -536525611 -82255607
            -220839881 135791626 -1047938480 -416101564</internalNodes>
          <leafValues>
            -7.8113210201263428e-01 5.7878786325454712e-01</leafValues></_>
        <_>
          <internalNodes>
            0 -1 56 -142997673 -653282860 1392992349 -391982095
            1203746617 2114095365 -205104887 -95503446</internalNodes>
          <leafValues>
            -6.1192435026168823e-01 5.8248955011367798e-01</leafValues></_>
        <_>
          <internalNodes>
            0 -1 33 559125712 -1530984375 -781107172 -259518000
            758012307 -1987186168 1586010114 -824379224</internalNodes>
          <leafValues>
            -6.7682659626007080e-01 5.2935928106307983e-01</leafValues></_>
        <_>
          <internalNodes>
            0 -1 32 286880696 923562240 -2130247359 -11417531 1342202296
            -578287232 -1048575591 1351385636</internalNodes>
          <leafValues>
            -7.8358566761016846e-01 4.8683470487594604e-01</leafValues></_></weakClassifiers></_>
    <!-- stage 10 -->
    <_>
      <maxWeakCount>4</maxWeakCount>
      <stageThreshold>-3.5444009304046631e-01</stageThreshold>
      <weakClassifiers>
        <_>
          <internalNodes>
            0 -1 38 -1946190244 498991103 -1073741833 -538181633
            -8945676 -1048585 -1062928339 -88326143</internalNodes>
          <leafValues>
            -6.2716764211654663e-01 6.7702937126159668e-01</leafValues></_>
        <_>
          <internalNodes>
            0 -1 10 -370459201 -803127151 1074266157 -804879870
            -2135776717 -83327547 1084391536 -76882639</internalNodes>
          <leafValues>
            -7.6073765754699707e-01 5.4842114448547363e-01</leafValues></_>
        <_>
          <internalNodes>
            0 -1 19 -1716963621 -799505350 -2130427883 -1870527485
            -1534914393 -628577970 1216954375 1322082853</internalNodes>
          <leafValues>
            -8.5004168748855591e-01 4.4411051273345947e-01</leafValues></_>
        <_>
          <internalNodes>
            0 -1 55 -775745196 1905344513 -1862123261 -1576320991
            687907090 -2128576495 -1610563582 -368655493</internalNodes>
          <leafValues>
            -6.6326928138732910e-01 5.8935469388961792e-01</leafValues></_></weakClassifiers></_>
    <!-- stage 11 -->
    <_>
      <maxWeakCount>4</maxWeakCount>
      <stageThreshold>-4.6968442201614380e-01</stageThreshold>
      <weakClassifiers>
        <_>
          <internalNodes>
            0 -1 24 106257759 1426358400 285212683 1024656577 281592538
            1610653760 1207978475 899887699</internalNodes>
          <leafValues>
            -9.1189426183700562e-01 5.4727792739868164e-01</leafValues></_>
        <_>
          <internalNodes>
            0 -1 27 -1693336196 -70696631 1367345415 -204931040
            -1852804503 -1700772987 -1442583179 -54492752</internalNodes>
          <leafValues>
            -7.2110974788665771e-01 5.4290431737899780e-01</leafValues></_>
        <_>
          <internalNodes>
            0 -1 36 -1837101033 1627755131 -654272507 -1247143404
            -2147069261 -335306749 -478150485 -1466390352</internalNodes>
          <leafValues>
            -6.2449091672897339e-01 5.4768115282058716e-01</leafValues></_>
        <_>
          <internalNodes>
            0 -1 34 -1643118501 -494337901 1345343823 -720158383
            1212055557 -1845493375 -450190809 -672882543</internalNodes>
          <leafValues>
            -5.7612890005111694e-01 6.1563843488693237e-01</leafValues></_></weakClassifiers></_>
    <!-- stage 12 -->
    <_>
      <maxWeakCount>4</maxWeakCount>
      <stageThreshold>-5.3000181913375854e-01</stageThreshold>
      <weakClassifiers>
        <_>
          <internalNodes>
            0 -1 49 1032967670 -1903633870 -1644082879 -580250367
            2658442 -398358397 -1601650554 -919344498</internalNodes>
          <leafValues>
            -7.2426468133926392e-01 5.6967842578887939e-01</leafValues></_>
        <_>
          <internalNodes>
            0 -1 15 -2129921657 -939327487 94209 1359032387 1107525771
            -2013233126 -1040039799 698572877</internalNodes>
          <leafValues>
            -7.5945580005645752e-01 4.3747964501380920e-01</leafValues></_>
        <_>
          <internalNodes>
            0 -1 37 -2022025411 2004766879 -855097079 -816598651
            604181897 -1467252607 -2117269235 -567482624</internalNodes>
          <leafValues>
            -6.9253867864608765e-01 4.9512219429016113e-01</leafValues></_>
        <_>
          <internalNodes>
            0 -1 39 -1039859280 1627390272 -2146369193 -1778366336
            -1069498238 -2013146871 -1062485216 -1461976095</internalNodes>
          <leafValues>
            -6.5201920270919800e-01 4.5859643816947937e-01</leafValues></_></weakClassifiers></_>
    <!-- stage 13 -->
    <_>
      <maxWeakCount>4</maxWeakCount>
      <stageThreshold>-4.7964784502983093e-01</stageThreshold>
      <weakClassifiers>
        <_>
          <internalNodes>
            0 -1 40 -1684383384 -1609477737 -769549163 1641611336
            -2146596805 -1929346808 -1188554357 260276427</internalNodes>
          <leafValues>
            -8.0321288108825684e-01 5.5473375320434570e-01</leafValues></_>
        <_>
          <internalNodes>
            0 -1 41 -744553451 -654227456 285218949 587665409
            -1073591095 134266881 -2138893960 -1142377810</internalNodes>
          <leafValues>
            -7.3918604850769043e-01 5.2144050598144531e-01</leafValues></_>
        <_>
          <internalNodes>
            0 -1 22 -1018284315 -1055766461 268469087 2132041989
            1284538598 -134184828 -2071884362 -74274284</internalNodes>
          <leafValues>
            -6.1367791891098022e-01 5.3897672891616821e-01</leafValues></_>
        <_>
          <internalNodes>
            0 -1 26 565258365 -2088501244 1107444567 -2045175607
            1342702661 -2147368952 -2069323232 -275981551</internalNodes>
          <leafValues>
            -6.3342732191085815e-01 5.2377432584762573e-01</leafValues></_></weakClassifiers></_>
    <!-- stage 14 -->
    <_>
      <maxWeakCount>5</maxWeakCount>
      <stageThreshold>-8.1024467945098877e-01</stageThreshold>
      <weakClassifiers>
        <_>
          <internalNodes>
            0 -1 45 -721 -1107361857 -1 872415231 -1077936140 -131073
            -134348812 -93257857</internalNodes>
          <leafValues>
            -5.0126582384109497e-01 7.0377355813980103e-01</leafValues></_>
        <_>
          <internalNodes>
            0 -1 25 -921585160 1543520448 16777223 -410976248
            -2113763125 1518535170 -535264578 328772234</internalNodes>
          <leafValues>
            -5.6343138217926025e-01 5.9450626373291016e-01</leafValues></_>
        <_>
          <internalNodes>
            0 -1 42 24320665 1929430168 8421384 -788414464 1078067435
            -1423736703 -2097092558 -58666991</internalNodes>
          <leafValues>
            -6.1972850561141968e-01 5.1043814420700073e-01</leafValues></_>
        <_>
          <internalNodes>
            0 -1 8 -119462309 -1052735485 1342439832 -1322942454
            1107972192 -2139086783 1778598243 -123492149</internalNodes>
          <leafValues>
            -6.8334478139877319e-01 4.5198243856430054e-01</leafValues></_>
        <_>
          <internalNodes>
            0 -1 43 174150969 -1173880803 -1186967472 -1408019440
            -1878949780 -1054700538 -1923045119 -1191657468</internalNodes>
          <leafValues>
            -6.9669812917709351e-01 4.2735910415649414e-01</leafValues></_></weakClassifiers></_>
    <!-- stage 15 -->
    <_>
      <maxWeakCount>5</maxWeakCount>
      <stageThreshold>-1.2447117567062378e+00</stageThreshold>
      <weakClassifiers>
        <_>
          <internalNodes>
            0 -1 30 -1333145278 788594817 268517776 260210704
            -1014956029 -2004877310 -1878884348 -100081120</internalNodes>
          <leafValues>
            -7.7505111694335938e-01 5.3563559055328369e-01</leafValues></_>
        <_>
          <internalNodes>
            0 -1 18 1027692126 -720858357 1073743883 -1761603582
            34122431 1375764873 1275644041 562233479</internalNodes>
          <leafValues>
            -8.2117956876754761e-01 3.7158778309822083e-01</leafValues></_>
        <_>
          <internalNodes>
            0 -1 2 -804749309 0 -2147483640 1090519040 -1065353085 0
            163979 -968802298</internalNodes>
          <leafValues>
            -7.0023506879806519e-01 4.3885356187820435e-01</leafValues></_>
        <_>
          <internalNodes>
            0 -1 20 -788275112 59342849 285212683 -1056800768
            -2147319608 152797322 65668 1595499049</internalNodes>
          <leafValues>
            -7.7310830354690552e-01 3.8381558656692505e-01</leafValues></_>
        <_>
          <internalNodes>
            0 -1 29 -1878774433 352784677 -1866280743 1535727627
            1075970049 -662700031 -524236732 -1205565950</internalNodes>
          <leafValues>
            -6.4274823665618896e-01 5.2042222023010254e-01</leafValues></_></weakClassifiers></_>
    <!-- stage 16 -->
    <_>
      <maxWeakCount>6</maxWeakCount>
      <stageThreshold>-4.3267554044723511e-01</stageThreshold>
      <weakClassifiers>
        <_>
          <internalNodes>
            0 -1 47 -2080432723 1024659657 -49153 805306111 8437944
            -603979645 -1015943 -11771229</internalNodes>
          <leafValues>
            -5.9393942356109619e-01 6.2352943420410156e-01</leafValues></_>
        <_>
          <internalNodes>
            0 -1 44 1153563937 52756773 -1073389040 -1596812701
            -251645788 1224859715 -390069486 -119781924</internalNodes>
          <leafValues>
            -6.5099304914474487e-01 4.6521401405334473e-01</leafValues></_>
        <_>
          <internalNodes>
            0 -1 52 -251403959 268472321 0 -788414463 32780 -2146369536
            1073987721 -1658468245</internalNodes>
          <leafValues>
            -5.4258668422698975e-01 5.5653315782546997e-01</leafValues></_>
        <_>
          <internalNodes>
            0 -1 6 -1073723365 0 0 1073741826 98368 -2147483646 33416
            -263233466</internalNodes>
          <leafValues>
            -6.3300246000289917e-01 5.1370555162429810e-01</leafValues></_>
        <_>
          <internalNodes>
            0 -1 28 211632478 -797865782 -1845411711 -784195333
            -2019495599 -2119696383 -2103410655 -618616819</internalNodes>
          <leafValues>
            -6.4605212211608887e-01 4.6364295482635498e-01</leafValues></_>
        <_>
          <internalNodes>
            0 -1 21 1348711250 -1088749311 1052945 1325531266
            -2010928720 142745602 -939422971 432865291</internalNodes>
          <leafValues>
            -7.0626461505889893e-01 4.1857126355171204e-01</leafValues></_></weakClassifiers></_></stages>
  <features>
    <_>
      <rect>
        0 0 9 17</rect></_>
    <_>
      <rect>
        0 0 16 12</rect></_>
    <_>
      <rect>
        0 8 3 16</rect></_>
    <_>
      <rect>
        0 20 3 15</rect></_>
    <_>
      <rect>
        0 23 2 14</rect></_>
    <_>
      <rect>
        0 28 16 11</rect></_>
    <_>
      <rect>
        1 0 2 20</rect></_>
    <_>
      <rect>
        2 0 15 15</rect></_>
    <_>
      <rect>
        2 49 1 1</rect></_>
    <_>
      <rect>
        3 39 1 2</rect></_>
    <_>
      <rect>
        3 42 3 4</rect></_>
    <_>
      <rect>
        4 0 6 8</rect></_>
    <_>
      <rect>
        4 40 15 8</rect></_>
    <_>
      <rect>
        4 43 2 2</rect></_>
    <_>
      <rect>
        6 0 2 9</rect></_>
    <_>
      <rect>
        6 0 3 8</rect></_>
    <_>
      <rect>
        6 5 6 7</rect></_>
    <_>
      <rect>
        8 4 5 5</rect></_>
    <_>
      <rect>
        8 45 10 6</rect></_>
    <_>
      <rect>
        9 5 5 3</rect></_>
    <_>
      <rect>
        11 1 10 6</rect></_>
    <_>
      <rect>
        12 0 10 6</rect></_>
    <_>
      <rect>
        12 48 4 3</rect></_>
    <_>
      <rect>
        13 29 3 1</rect></_>
    <_>
      <rect>
        13 47 8 6</rect></_>
    <_>
      <rect>
        15 25 8 5</rect></_>
    <_>
      <rect>
        16 31 1 1</rect></_>
    <_>
      <rect>
        17 30 2 1</rect></_>
    <_>
      <rect>
        17 42 1 1</rect></_>
    <_>
      <rect>
        17 44 2 1</rect></_>
    <_>
      <rect>
        18 6 9 4</rect></_>
    <_>
      <rect>
        19 52 10 3</rect></_>
    <_>
      <rect>
        20 43 5 3</rect></_>
    <_>
      <rect>
        21 17 1 1</rect></_>
    <_>
      <rect>
        21 26 1 1</rect></_>
    <_>
      <rect>
        22 9 8 5</rect></_>
    <_>
      <rect>
        22 14 1 1</rect></_>
    <_>
      <rect>
        22 48 2 2</rect></_>
    <_>
      <rect>
        23 13 6 3</rect></_>
    <_>
      <rect>
        23 17 1 1</rect></_>
    <_>
      <rect>
        23 56 6 3</rect></_>
    <_>
      <rect>
        24 1 8 10</rect></_>
    <_>
      <rect>
        24 42 4 3</rect></_>
    <_>
      <rect>
        26 26 1 1</rect></_>
    <_>
      <rect>
        29 30 1 1</rect></_>
    <_>
      <rect>
        31 4 6 5</rect></_>
    <_>
      <rect>
        31 35 6 10</rect></_>
    <_>
      <rect>
        34 11 3 4</rect></_>
    <_>
      <rect>
        34 43 5 3</rect></_>
    <_>
      <rect>
        35 50 4 3</rect></_>
    <_>
      <rect>
        39 1 3 21</rect></_>
    <_>
      <rect>
        39 2 3 13</rect></_>
    <_>
      <rect>
        39 17 3 16</rect></_>
    <_>
      <rect>
        40 38 3 1</rect></_>
    <_>
      <rect>
        43 1 2 15</rect></_>
    <_>
      <rect>
        45 22 1 3</rect></_>
    <_>
      <rect>
        46 24 1 2</rect></_>
    <_>
      <rect>
        46 32 1 1</rect></_></features></cascade>
</opencv_storage>
