<?xml version="1.0"?>
<opencv_storage>
<cascade>
  <stageType>BOOST</stageType>
  <featureType>HAAR</featureType>
  <height>65</height>
  <width>49</width>
  <stageParams>
    <boostType>GAB</boostType>
    <minHitRate>9.9500000476837158e-01</minHitRate>
    <maxFalseAlarm>5.0000000000000000e-01</maxFalseAlarm>
    <weightTrimRate>9.4999999999999996e-01</weightTrimRate>
    <maxDepth>1</maxDepth>
    <maxWeakCount>100</maxWeakCount></stageParams>
  <featureParams>
    <maxCatCount>0</maxCatCount>
    <featSize>1</featSize>
    <mode>BASIC</mode></featureParams>
  <stageNum>15</stageNum>
  <stages>
    <!-- stage 0 -->
    <_>
      <maxWeakCount>3</maxWeakCount>
      <stageThreshold>-7.6693183183670044e-01</stageThreshold>
      <weakClassifiers>
        <_>
          <internalNodes>
            0 -1 7 -4.2923789471387863e-02</internalNodes>
          <leafValues>
            8.1609195470809937e-01 -7.9694020748138428e-01</leafValues></_>
        <_>
          <internalNodes>
            0 -1 79 4.9450881779193878e-03</internalNodes>
          <leafValues>
            -6.7352533340454102e-01 7.8409117460250854e-01</leafValues></_>
        <_>
          <internalNodes>
            0 -1 47 -6.0399244539439678e-03</internalNodes>
          <leafValues>
            7.0353376865386963e-01 -5.8930110931396484e-01</leafValues></_></weakClassifiers></_>
    <!-- stage 1 -->
    <_>
      <maxWeakCount>4</maxWeakCount>
      <stageThreshold>-1.0472433567047119e+00</stageThreshold>
      <weakClassifiers>
        <_>
          <internalNodes>
            0 -1 82 -2.8688693419098854e-02</internalNodes>
          <leafValues>
            7.3784720897674561e-01 -7.1633237600326538e-01</leafValues></_>
        <_>
          <internalNodes>
            0 -1 8 -4.2192079126834869e-03</internalNodes>
          <leafValues>
            5.7972675561904907e-01 -6.7432248592376709e-01</leafValues></_>
        <_>
          <internalNodes>
            0 -1 29 -9.7745142877101898e-02</internalNodes>
          <leafValues>
            7.4728143215179443e-01 -5.3135770559310913e-01</leafValues></_>
        <_>
          <internalNodes>
            0 -1 68 -6.2726572155952454e-02</internalNodes>
          <leafValues>
            8.4626191854476929e-01 -4.0386992692947388e-01</leafValues></_></weakClassifiers></_>
    <!-- stage 2 -->
    <_>
      <maxWeakCount>5</maxWeakCount>
      <stageThreshold>-3.7813615798950195e-01</stageThreshold>
      <weakClassifiers>
        <_>
          <internalNodes>
            0 -1 21 -8.3534874022006989e-02</internalNodes>
          <leafValues>
            7.0420169830322266e-01 -7.3939394950866699e-01</leafValues></_>
        <_>
          <internalNodes>
            0 -1 39 -1.9377625903871376e-06</internalNodes>
          <leafValues>
            6.0122299194335938e-01 -5.0877690315246582e-01</leafValues></_>
        <_>
          <internalNodes>
            0 -1 102 1.8743508007901255e-06</internalNodes>
          <leafValues>
            -4.9523231387138367e-01 5.7745110988616943e-01</leafValues></_>
        <_>
          <internalNodes>
            0 -1 24 7.4108466506004333e-03</internalNodes>
          <leafValues>
            -6.0739964246749878e-01 4.6304857730865479e-01</leafValues></_>
        <_>
          <internalNodes>
            0 -1 52 1.7206045985221863e-01</internalNodes>
          <leafValues>
            -2.8122600913047791e-01 9.0221840143203735e-01</leafValues></_></weakClassifiers></_>
    <!-- stage 3 -->
    <_>
      <maxWeakCount>7</maxWeakCount>
      <stageThreshold>-9.0013223886489868e-01</stageThreshold>
      <weakClassifiers>
        <_>
          <internalNodes>
            0 -1 19 -1.9013886339962482e-03</internalNodes>
          <leafValues>
            5.5374354124069214e-01 -7.9241514205932617e-01</leafValues></_>
        <_>
          <internalNodes>
            0 -1 100 1.9228227756684646e-06</internalNodes>
          <leafValues>
            -5.7411843538284302e-01 5.1988518238067627e-01</leafValues></_>
        <_>
          <internalNodes>
            0 -1 104 1.8891236095441855e-06</internalNodes>
          <leafValues>
            -4.8661881685256958e-01 4.8905026912689209e-01</leafValues></_>
        <_>
          <internalNodes>
            0 -1 38 -1.8891236095441855e-06</internalNodes>
          <leafValues>
            4.9232912063598633e-01 -4.8262560367584229e-01</leafValues></_>
        <_>
          <internalNodes>
            0 -1 37 -9.1429566964507103e-04</internalNodes>
          <leafValues>
            -9.3384671211242676e-01 2.4638184905052185e-01</leafValues></_>
        <_>
          <internalNodes>
            0 -1 62 -2.3877111077308655e-01</internalNodes>
          <leafValues>
            5.8451658487319946e-01 -4.0828737616539001e-01</leafValues></_>
        <_>
          <internalNodes>
            0 -1 55 -2.6086222380399704e-02</internalNodes>
          <leafValues>
            6.2259656190872192e-01 -5.6912618875503540e-01</leafValues></_></weakClassifiers></_>
    <!-- stage 4 -->
    <_>
      <maxWeakCount>4</maxWeakCount>
      <stageThreshold>-1.3982795476913452e+00</stageThreshold>
      <weakClassifiers>
        <_>
          <internalNodes>
            0 -1 89 8.5144247859716415e-03</internalNodes>
          <leafValues>
            -7.3174369335174561e-01 7.1331638097763062e-01</leafValues></_>
        <_>
          <internalNodes>
            0 -1 5 -3.2028979621827602e-03</internalNodes>
          <leafValues>
            6.1727434396743774e-01 -4.9535813927650452e-01</leafValues></_>
        <_>
          <internalNodes>
            0 -1 0 1.0434044525027275e-02</internalNodes>
          <leafValues>
            3.5113564133644104e-01 -8.8169348239898682e-01</leafValues></_>
        <_>
          <internalNodes>
            0 -1 48 -1.8422983121126890e-03</internalNodes>
          <leafValues>
            3.3263587951660156e-01 -7.3454433679580688e-01</leafValues></_></weakClassifiers></_>
    <!-- stage 5 -->
    <_>
      <maxWeakCount>6</maxWeakCount>
      <stageThreshold>-1.2447385787963867e+00</stageThreshold>
      <weakClassifiers>
        <_>
          <internalNodes>
            0 -1 80 -7.8485310077667236e-02</internalNodes>
          <leafValues>
            5.8268398046493530e-01 -4.6474820375442505e-01</leafValues></_>
        <_>
          <internalNodes>
            0 -1 6 3.0792555771768093e-03</internalNodes>
          <leafValues>
            -3.8691741228103638e-01 6.9445341825485229e-01</leafValues></_>
        <_>
          <internalNodes>
            0 -1 10 -4.0838439017534256e-03</internalNodes>
          <leafValues>
            4.7007471323013306e-01 -4.8205220699310303e-01</leafValues></_>
        <_>
          <internalNodes>
            0 -1 91 1.3573860749602318e-02</internalNodes>
          <leafValues>
            -3.5057184100151062e-01 5.5391144752502441e-01</leafValues></_>
        <_>
          <internalNodes>
            0 -1 83 -2.9358854517340660e-03</internalNodes>
          <leafValues>
            5.0028491020202637e-01 -3.8611802458763123e-01</leafValues></_>
        <_>
          <internalNodes>
            0 -1 63 -9.0512707829475403e-02</internalNodes>
          <leafValues>
            8.3226168155670166e-01 -2.5570169091224670e-01</leafValues></_></weakClassifiers></_>
    <!-- stage 6 -->
    <_>
      <maxWeakCount>6</maxWeakCount>
      <stageThreshold>-6.8210506439208984e-01</stageThreshold>
      <weakClassifiers>
        <_>
          <internalNodes>
            0 -1 58 -9.3503192067146301e-02</internalNodes>
          <leafValues>
            6.1552679538726807e-01 -4.1145834326744080e-01</leafValues></_>
        <_>
          <internalNodes>
            0 -1 42 -8.9842438697814941e-02</internalNodes>
          <leafValues>
            -8.2975077629089355e-01 2.9335775971412659e-01</leafValues></_>
        <_>
          <internalNodes>
            0 -1 96 2.6052375324070454e-03</internalNodes>
          <leafValues>
            -5.2185171842575073e-01 3.8615450263023376e-01</leafValues></_>
        <_>
          <internalNodes>
            0 -1 1 -3.1219916418194771e-03</internalNodes>
          <leafValues>
            3.6610439419746399e-01 -4.4763121008872986e-01</leafValues></_>
        <_>
          <internalNodes>
            0 -1 15 2.0116897303523729e-06</internalNodes>
          <leafValues>
            -5.9258210659027100e-01 2.6637497544288635e-01</leafValues></_>
        <_>
          <internalNodes>
            0 -1 90 4.6475598355755210e-04</internalNodes>
          <leafValues>
            2.1286427974700928e-01 -6.7277938127517700e-01</leafValues></_></weakClassifiers></_>
    <!-- stage 7 -->
    <_>
      <maxWeakCount>7</maxWeakCount>
      <stageThreshold>-7.2488313913345337e-01</stageThreshold>
      <weakClassifiers>
        <_>
          <internalNodes>
            0 -1 34 -1.2220892822369933e-03</internalNodes>
          <leafValues>
            -9.3623191118240356e-01 4.4717606902122498e-01</leafValues></_>
        <_>
          <internalNodes>
            0 -1 51 -2.5605070590972900e-01</internalNodes>
          <leafValues>
            6.7291665077209473e-01 -3.5450795292854309e-01</leafValues></_>
        <_>
          <internalNodes>
            0 -1 30 -1.9650687463581562e-03</internalNodes>
          <leafValues>
            4.3385705351829529e-01 -4.4496130943298340e-01</leafValues></_>
        <_>
          <internalNodes>
            0 -1 73 -7.4101648351643234e-05</internalNodes>
          <leafValues>
            -6.7190486192703247e-01 3.3499550819396973e-01</leafValues></_>
        <_>
          <internalNodes>
            0 -1 74 -2.9273135587573051e-03</internalNodes>
          <leafValues>
            2.2494848072528839e-01 -6.2642276287078857e-01</leafValues></_>
        <_>
          <internalNodes>
            0 -1 41 2.9948100447654724e-02</internalNodes>
          <leafValues>
            -2.1482607722282410e-01 8.0249744653701782e-01</leafValues></_>
        <_>
          <internalNodes>
            0 -1 33 -2.1414016373455524e-06</internalNodes>
          <leafValues>
            3.2729223370552063e-01 -5.8962589502334595e-01</leafValues></_></weakClassifiers></_>
    <!-- stage 8 -->
    <_>
      <maxWeakCount>7</maxWeakCount>
      <stageThreshold>-7.2893762588500977e-01</stageThreshold>
      <weakClassifiers>
        <_>
          <internalNodes>
            0 -1 69 9.0879970230162144e-05</internalNodes>
          <leafValues>
            3.8590821623802185e-01 -8.1518149375915527e-01</leafValues></_>
        <_>
          <internalNodes>
            0 -1 65 2.5388677604496479e-03</internalNodes>
          <leafValues>
            -4.8154324293136597e-01 4.4509473443031311e-01</leafValues></_>
        <_>
          <internalNodes>
            0 -1 13 -1.9170412269886583e-04</internalNodes>
          <leafValues>
            -6.6585725545883179e-01 3.1059345602989197e-01</leafValues></_>
        <_>
          <internalNodes>
            0 -1 25 -4.9409129132982343e-05</internalNodes>
          <leafValues>
            -7.7284592390060425e-01 1.8327921628952026e-01</leafValues></_>
        <_>
          <internalNodes>
            0 -1 56 -2.0265839993953705e-03</internalNodes>
          <leafValues>
            3.0844056606292725e-01 -5.8014672994613647e-01</leafValues></_>
        <_>
          <internalNodes>
            0 -1 70 8.4919476648792624e-05</internalNodes>
          <leafValues>
            1.7042633891105652e-01 -8.1881690025329590e-01</leafValues></_>
        <_>
          <internalNodes>
            0 -1 88 -2.8784421738237143e-04</internalNodes>
          <leafValues>
            3.0127549171447754e-01 -5.4472976922988892e-01</leafValues></_></weakClassifiers></_>
    <!-- stage 9 -->
    <_>
      <maxWeakCount>9</maxWeakCount>
      <stageThreshold>-9.9122470617294312e-01</stageThreshold>
      <weakClassifiers>
        <_>
          <internalNodes>
            0 -1 85 -1.0993780568242073e-02</internalNodes>
          <leafValues>
            4.7392290830612183e-01 -5.2561670541763306e-01</leafValues></_>
        <_>
          <internalNodes>
            0 -1 77 -6.7930156365036964e-04</internalNodes>
          <leafValues>
            6.3071221113204956e-01 -2.9183793067932129e-01</leafValues></_>
        <_>
          <internalNodes>
            0 -1 54 -2.9071968793869019e-01</internalNodes>
          <leafValues>
            7.3324388265609741e-01 -2.2420608997344971e-01</leafValues></_>
        <_>
          <internalNodes>
            0 -1 72 5.4085326155473012e-06</internalNodes>
          <leafValues>
            2.2798871994018555e-01 -7.9091763496398926e-01</leafValues></_>
        <_>
          <internalNodes>
            0 -1 28 -1.8021697178483009e-04</internalNodes>
          <leafValues>
            -4.8141422867774963e-01 3.5385963320732117e-01</leafValues></_>
        <_>
          <internalNodes>
            0 -1 45 1.3261957792565227e-04</internalNodes>
          <leafValues>
            2.2370772063732147e-01 -7.0542228221893311e-01</leafValues></_>
        <_>
          <internalNodes>
            0 -1 46 -4.4374013668857515e-05</internalNodes>
          <leafValues>
            -6.0044521093368530e-01 3.1276640295982361e-01</leafValues></_>
        <_>
          <internalNodes>
            0 -1 36 2.6568518951535225e-03</internalNodes>
          <leafValues>
            -3.9992502331733704e-01 4.8739424347877502e-01</leafValues></_>
        <_>
          <internalNodes>
            0 -1 66 6.5392508986406028e-05</internalNodes>
          <leafValues>
            2.6366862654685974e-01 -7.9228389263153076e-01</leafValues></_></weakClassifiers></_>
    <!-- stage 10 -->
    <_>
      <maxWeakCount>10</maxWeakCount>
      <stageThreshold>-7.1719592809677124e-01</stageThreshold>
      <weakClassifiers>
        <_>
          <internalNodes>
            0 -1 16 -5.2501544356346130e-02</internalNodes>
          <leafValues>
            5.5390334129333496e-01 -3.1782945990562439e-01</leafValues></_>
        <_>
          <internalNodes>
            0 -1 53 -2.3080810904502869e-01</internalNodes>
          <leafValues>
            6.8420535326004028e-01 -2.1856552362442017e-01</leafValues></_>
        <_>
          <internalNodes>
            0 -1 67 2.7465550228953362e-03</internalNodes>
          <leafValues>
            -6.2899923324584961e-01 2.6797506213188171e-01</leafValues></_>
        <_>
          <internalNodes>
            0 -1 95 -3.4682764089666307e-04</internalNodes>
          <leafValues>
            3.3496621251106262e-01 -4.8731088638305664e-01</leafValues></_>
        <_>
          <internalNodes>
            0 -1 43 -2.7111309766769409e-01</internalNodes>
          <leafValues>
            6.7269307374954224e-01 -2.4444310367107391e-01</leafValues></_>
        <_>
          <internalNodes>
            0 -1 106 3.7574689486064017e-05</internalNodes>
          <leafValues>
            3.1793120503425598e-01 -6.4185369014739990e-01</leafValues></_>
        <_>
          <internalNodes>
            0 -1 27 -2.0296699367463589e-03</internalNodes>
          <leafValues>
            3.9658799767494202e-01 -4.7561097145080566e-01</leafValues></_>
        <_>
          <internalNodes>
            0 -1 103 1.8743508007901255e-06</internalNodes>
          <leafValues>
            -5.1412612199783325e-01 3.0439072847366333e-01</leafValues></_>
        <_>
          <internalNodes>
            0 -1 11 1.2399903498589993e-03</internalNodes>
          <leafValues>
            2.2759339213371277e-01 -7.3970705270767212e-01</leafValues></_>
        <_>
          <internalNodes>
            0 -1 12 -9.0867830440402031e-03</internalNodes>
          <leafValues>
            -8.6942666769027710e-01 1.4128290116786957e-01</leafValues></_></weakClassifiers></_>
    <!-- stage 11 -->
    <_>
      <maxWeakCount>10</maxWeakCount>
      <stageThreshold>-1.4673714637756348e+00</stageThreshold>
      <weakClassifiers>
        <_>
          <internalNodes>
            0 -1 49 -1.0762082092696801e-04</internalNodes>
          <leafValues>
            4.1346153616905212e-01 -6.3959389925003052e-01</leafValues></_>
        <_>
          <internalNodes>
            0 -1 18 8.1833591684699059e-04</internalNodes>
          <leafValues>
            -3.4032204747200012e-01 5.5271017551422119e-01</leafValues></_>
        <_>
          <internalNodes>
            0 -1 81 9.7364303655922413e-05</internalNodes>
          <leafValues>
            3.2453098893165588e-01 -5.5172812938690186e-01</leafValues></_>
        <_>
          <internalNodes>
            0 -1 64 -1.9644828513264656e-02</internalNodes>
          <leafValues>
            7.6900523900985718e-01 -2.0711918175220490e-01</leafValues></_>
        <_>
          <internalNodes>
            0 -1 101 -3.4347318432992324e-05</internalNodes>
          <leafValues>
            -7.1897137165069580e-01 2.4624134600162506e-01</leafValues></_>
        <_>
          <internalNodes>
            0 -1 61 -1.6838583396747708e-03</internalNodes>
          <leafValues>
            6.6360944509506226e-01 -2.5449404120445251e-01</leafValues></_>
        <_>
          <internalNodes>
            0 -1 2 -1.9144285033689812e-05</internalNodes>
          <leafValues>
            -5.9495168924331665e-01 2.2087305784225464e-01</leafValues></_>
        <_>
          <internalNodes>
            0 -1 59 -7.7313592191785574e-04</internalNodes>
          <leafValues>
            5.6640022993087769e-01 -2.7839750051498413e-01</leafValues></_>
        <_>
          <internalNodes>
            0 -1 44 -7.9160537570714951e-03</internalNodes>
          <leafValues>
            5.3405982255935669e-01 -3.2412219047546387e-01</leafValues></_>
        <_>
          <internalNodes>
            0 -1 86 -6.9906833232380450e-05</internalNodes>
          <leafValues>
            -4.6897178888320923e-01 4.0994369983673096e-01</leafValues></_></weakClassifiers></_>
    <!-- stage 12 -->
    <_>
      <maxWeakCount>9</maxWeakCount>
      <stageThreshold>-8.7467998266220093e-01</stageThreshold>
      <weakClassifiers>
        <_>
          <internalNodes>
            0 -1 98 1.2784561840817332e-04</internalNodes>
          <leafValues>
            -7.5375378131866455e-01 3.9617666602134705e-01</leafValues></_>
        <_>
          <internalNodes>
            0 -1 71 -2.1590627729892731e-01</internalNodes>
          <leafValues>
            5.6978261470794678e-01 -3.5394880175590515e-01</leafValues></_>
        <_>
          <internalNodes>
            0 -1 9 5.5224646348506212e-04</internalNodes>
          <leafValues>
            -4.5622509717941284e-01 4.6340560913085938e-01</leafValues></_>
        <_>
          <internalNodes>
            0 -1 31 -1.2694584438577294e-04</internalNodes>
          <leafValues>
            -4.4395998120307922e-01 3.6513882875442505e-01</leafValues></_>
        <_>
          <internalNodes>
            0 -1 92 5.5392237845808268e-04</internalNodes>
          <leafValues>
            -4.5965939760208130e-01 3.6900153756141663e-01</leafValues></_>
        <_>
          <internalNodes>
            0 -1 75 -7.6236421591602266e-05</internalNodes>
          <leafValues>
            -4.8939186334609985e-01 3.4276080131530762e-01</leafValues></_>
        <_>
          <internalNodes>
            0 -1 20 4.6672221273183823e-02</internalNodes>
          <leafValues>
            1.7426663637161255e-01 -9.0024584531784058e-01</leafValues></_>
        <_>
          <internalNodes>
            0 -1 40 1.2990862887818366e-04</internalNodes>
          <leafValues>
            2.0959693193435669e-01 -7.3864537477493286e-01</leafValues></_>
        <_>
          <internalNodes>
            0 -1 14 -8.0419110599905252e-04</internalNodes>
          <leafValues>
            1.9246357679367065e-01 -7.4198359251022339e-01</leafValues></_></weakClassifiers></_>
    <!-- stage 13 -->
    <_>
      <maxWeakCount>12</maxWeakCount>
      <stageThreshold>-7.5188660621643066e-01</stageThreshold>
      <weakClassifiers>
        <_>
          <internalNodes>
            0 -1 17 4.1260915168095380e-05</internalNodes>
          <leafValues>
            5.1541095972061157e-01 -3.6950147151947021e-01</leafValues></_>
        <_>
          <internalNodes>
            0 -1 50 -6.6290827817283571e-05</internalNodes>
          <leafValues>
            2.4268169701099396e-01 -7.6743358373641968e-01</leafValues></_>
        <_>
          <internalNodes>
            0 -1 60 -1.6521855723112822e-03</internalNodes>
          <leafValues>
            5.6486445665359497e-01 -3.0547869205474854e-01</leafValues></_>
        <_>
          <internalNodes>
            0 -1 35 -2.3136043455451727e-04</internalNodes>
          <leafValues>
            -6.1838412284851074e-01 2.4706900119781494e-01</leafValues></_>
        <_>
          <internalNodes>
            0 -1 93 -4.5131682418286800e-04</internalNodes>
          <leafValues>
            3.3486491441726685e-01 -4.5701581239700317e-01</leafValues></_>
        <_>
          <internalNodes>
            0 -1 22 9.8783127032220364e-04</internalNodes>
          <leafValues>
            1.6904652118682861e-01 -7.8341734409332275e-01</leafValues></_>
        <_>
          <internalNodes>
            0 -1 97 -2.2136098414193839e-04</internalNodes>
          <leafValues>
            -6.8857979774475098e-01 2.3087753355503082e-01</leafValues></_>
        <_>
          <internalNodes>
            0 -1 3 3.3393329381942749e-01</internalNodes>
          <leafValues>
            -1.7396785318851471e-01 1.</leafValues></_>
        <_>
          <internalNodes>
            0 -1 94 3.7314667133614421e-04</internalNodes>
          <leafValues>
            -5.6964302062988281e-01 3.5621851682662964e-01</leafValues></_>
        <_>
          <internalNodes>
            0 -1 84 8.8340493675787002e-06</internalNodes>
          <leafValues>
            4.8260468244552612e-01 -3.7616732716560364e-01</leafValues></_>
        <_>
          <internalNodes>
            0 -1 57 8.3272178017068654e-05</internalNodes>
          <leafValues>
            2.4172599613666534e-01 -6.0960948467254639e-01</leafValues></_>
        <_>
          <internalNodes>
            0 -1 87 -5.2807433530688286e-04</internalNodes>
          <leafValues>
            6.1332374811172485e-01 -2.8192040324211121e-01</leafValues></_></weakClassifiers></_>
    <!-- stage 14 -->
    <_>
      <maxWeakCount>8</maxWeakCount>
      <stageThreshold>-6.4622020721435547e-01</stageThreshold>
      <weakClassifiers>
        <_>
          <internalNodes>
            0 -1 26 -2.9558200389146805e-02</internalNodes>
          <leafValues>
            -8.3266931772232056e-01 3.4959349036216736e-01</leafValues></_>
        <_>
          <internalNodes>
            0 -1 78 -1.8876393733080477e-04</internalNodes>
          <leafValues>
            5.4325008392333984e-01 -3.1864556670188904e-01</leafValues></_>
        <_>
          <internalNodes>
            0 -1 99 5.4140860447660089e-04</internalNodes>
          <leafValues>
            -8.5859656333923340e-01 2.4440550804138184e-01</leafValues></_>
        <_>
          <internalNodes>
            0 -1 76 -2.3112233728170395e-02</internalNodes>
          <leafValues>
            6.4937549829483032e-01 -2.9092189669609070e-01</leafValues></_>
        <_>
          <internalNodes>
            0 -1 4 -9.1251895355526358e-06</internalNodes>
          <leafValues>
            -4.4211006164550781e-01 3.5282647609710693e-01</leafValues></_>
        <_>
          <internalNodes>
            0 -1 23 -5.2231662266422063e-05</internalNodes>
          <leafValues>
            -6.5677535533905029e-01 2.5309208035469055e-01</leafValues></_>
        <_>
          <internalNodes>
            0 -1 32 1.5226416289806366e-03</internalNodes>
          <leafValues>
            -2.8302523493766785e-01 6.4881610870361328e-01</leafValues></_>
        <_>
          <internalNodes>
            0 -1 105 -2.7319292712491006e-05</internalNodes>
          <leafValues>
            -7.2721737623214722e-01 2.2871777415275574e-01</leafValues></_></weakClassifiers></_></stages>
  <features>
    <_>
      <rects>
        <_>
          0 0 1 64 -1.</_>
        <_>
          0 32 1 32 2.</_></rects>
      <tilted>0</tilted></_>
    <_>
      <rects>
        <_>
          0 0 20 12 -1.</_>
        <_>
          0 0 10 6 2.</_>
        <_>
          10 6 10 6 2.</_></rects>
      <tilted>0</tilted></_>
    <_>
      <rects>
        <_>
          0 4 3 6 -1.</_>
        <_>
          1 4 1 6 3.</_></rects>
      <tilted>0</tilted></_>
    <_>
      <rects>
        <_>
          0 4 48 42 -1.</_>
        <_>
          0 18 48 14 3.</_></rects>
      <tilted>0</tilted></_>
    <_>
      <rects>
        <_>
          0 7 12 3 -1.</_>
        <_>
          4 7 4 3 3.</_></rects>
      <tilted>0</tilted></_>
    <_>
      <rects>
        <_>
          0 8 4 46 -1.</_>
        <_>
          2 8 2 46 2.</_></rects>
      <tilted>0</tilted></_>
    <_>
      <rects>
        <_>
          0 12 12 24 -1.</_>
        <_>
          0 12 6 12 2.</_>
        <_>
          6 24 6 12 2.</_></rects>
      <tilted>0</tilted></_>
    <_>
      <rects>
        <_>
          0 12 26 50 -1.</_>
        <_>
          13 12 13 50 2.</_></rects>
      <tilted>0</tilted></_>
    <_>
      <rects>
        <_>
          0 18 8 45 -1.</_>
        <_>
          4 18 4 45 2.</_></rects>
      <tilted>0</tilted></_>
    <_>
      <rects>
        <_>
          0 18 10 10 -1.</_>
        <_>
          0 18 5 5 2.</_>
        <_>
          5 23 5 5 2.</_></rects>
      <tilted>0</tilted></_>
    <_>
      <rects>
        <_>
          0 35 6 20 -1.</_>
        <_>
          3 35 3 20 2.</_></rects>
      <tilted>0</tilted></_>
    <_>
      <rects>
        <_>
          0 36 12 29 -1.</_>
        <_>
          4 36 4 29 3.</_></rects>
      <tilted>0</tilted></_>
    <_>
      <rects>
        <_>
          0 41 12 24 -1.</_>
        <_>
          4 41 4 24 3.</_></rects>
      <tilted>0</tilted></_>
    <_>
      <rects>
        <_>
          0 42 1 21 -1.</_>
        <_>
          0 49 1 7 3.</_></rects>
      <tilted>0</tilted></_>
    <_>
      <rects>
        <_>
          0 42 21 23 -1.</_>
        <_>
          7 42 7 23 3.</_></rects>
      <tilted>0</tilted></_>
    <_>
      <rects>
        <_>
          0 51 3 14 -1.</_>
        <_>
          1 51 1 14 3.</_></rects>
      <tilted>0</tilted></_>
    <_>
      <rects>
        <_>
          0 53 42 12 -1.</_>
        <_>
          14 53 14 12 3.</_></rects>
      <tilted>0</tilted></_>
    <_>
      <rects>
        <_>
          1 5 6 28 -1.</_>
        <_>
          3 5 2 28 3.</_></rects>
      <tilted>0</tilted></_>
    <_>
      <rects>
        <_>
          1 14 6 24 -1.</_>
        <_>
          1 14 3 12 2.</_>
        <_>
          4 26 3 12 2.</_></rects>
      <tilted>0</tilted></_>
    <_>
      <rects>
        <_>
          1 29 6 35 -1.</_>
        <_>
          4 29 3 35 2.</_></rects>
      <tilted>0</tilted></_>
    <_>
      <rects>
        <_>
          1 31 44 23 -1.</_>
        <_>
          23 31 22 23 2.</_></rects>
      <tilted>0</tilted></_>
    <_>
      <rects>
        <_>
          1 32 48 31 -1.</_>
        <_>
          17 32 16 31 3.</_></rects>
      <tilted>0</tilted></_>
    <_>
      <rects>
        <_>
          1 33 9 29 -1.</_>
        <_>
          4 33 3 29 3.</_></rects>
      <tilted>0</tilted></_>
    <_>
      <rects>
        <_>
          1 55 4 8 -1.</_>
        <_>
          1 55 2 4 2.</_>
        <_>
          3 59 2 4 2.</_></rects>
      <tilted>0</tilted></_>
    <_>
      <rects>
        <_>
          1 55 48 10 -1.</_>
        <_>
          1 60 48 5 2.</_></rects>
      <tilted>0</tilted></_>
    <_>
      <rects>
        <_>
          1 62 3 3 -1.</_>
        <_>
          2 62 1 3 3.</_></rects>
      <tilted>0</tilted></_>
    <_>
      <rects>
        <_>
          2 0 15 65 -1.</_>
        <_>
          7 0 5 65 3.</_></rects>
      <tilted>0</tilted></_>
    <_>
      <rects>
        <_>
          2 0 12 18 -1.</_>
        <_>
          2 0 6 9 2.</_>
        <_>
          8 9 6 9 2.</_></rects>
      <tilted>0</tilted></_>
    <_>
      <rects>
        <_>
          2 1 27 4 -1.</_>
        <_>
          11 1 9 4 3.</_></rects>
      <tilted>0</tilted></_>
    <_>
      <rects>
        <_>
          2 1 47 45 -1.</_>
        <_>
          2 16 47 15 3.</_></rects>
      <tilted>0</tilted></_>
    <_>
      <rects>
        <_>
          2 32 10 24 -1.</_>
        <_>
          2 32 5 12 2.</_>
        <_>
          7 44 5 12 2.</_></rects>
      <tilted>0</tilted></_>
    <_>
      <rects>
        <_>
          2 61 18 3 -1.</_>
        <_>
          8 61 6 3 3.</_></rects>
      <tilted>0</tilted></_>
    <_>
      <rects>
        <_>
          3 13 6 12 -1.</_>
        <_>
          3 13 3 6 2.</_>
        <_>
          6 19 3 6 2.</_></rects>
      <tilted>0</tilted></_>
    <_>
      <rects>
        <_>
          3 35 4 1 -1.</_>
        <_>
          5 35 2 1 2.</_></rects>
      <tilted>0</tilted></_>
    <_>
      <rects>
        <_>
          3 46 7 18 -1.</_>
        <_>
          3 55 7 9 2.</_></rects>
      <tilted>0</tilted></_>
    <_>
      <rects>
        <_>
          3 50 4 15 -1.</_>
        <_>
          3 55 4 5 3.</_></rects>
      <tilted>0</tilted></_>
    <_>
      <rects>
        <_>
          4 6 10 26 -1.</_>
        <_>
          4 6 5 13 2.</_>
        <_>
          9 19 5 13 2.</_></rects>
      <tilted>0</tilted></_>
    <_>
      <rects>
        <_>
          4 10 3 45 -1.</_>
        <_>
          5 10 1 45 3.</_></rects>
      <tilted>0</tilted></_>
    <_>
      <rects>
        <_>
          4 20 2 1 -1.</_>
        <_>
          5 20 1 1 2.</_></rects>
      <tilted>0</tilted></_>
    <_>
      <rects>
        <_>
          4 45 2 1 -1.</_>
        <_>
          5 45 1 1 2.</_></rects>
      <tilted>0</tilted></_>
    <_>
      <rects>
        <_>
          4 50 3 15 -1.</_>
        <_>
          5 50 1 15 3.</_></rects>
      <tilted>0</tilted></_>
    <_>
      <rects>
        <_>
          5 4 5 60 -1.</_>
        <_>
          5 24 5 20 3.</_></rects>
      <tilted>0</tilted></_>
    <_>
      <rects>
        <_>
          5 4 44 54 -1.</_>
        <_>
          27 4 22 54 2.</_></rects>
      <tilted>0</tilted></_>
    <_>
      <rects>
        <_>
          5 14 40 36 -1.</_>
        <_>
          5 32 40 18 2.</_></rects>
      <tilted>0</tilted></_>
    <_>
      <rects>
        <_>
          5 38 39 12 -1.</_>
        <_>
          5 42 39 4 3.</_></rects>
      <tilted>0</tilted></_>
    <_>
      <rects>
        <_>
          5 52 6 7 -1.</_>
        <_>
          7 52 2 7 3.</_></rects>
      <tilted>0</tilted></_>
    <_>
      <rects>
        <_>
          5 64 9 1 -1.</_>
        <_>
          8 64 3 1 3.</_></rects>
      <tilted>0</tilted></_>
    <_>
      <rects>
        <_>
          6 0 13 16 -1.</_>
        <_>
          6 8 13 8 2.</_></rects>
      <tilted>0</tilted></_>
    <_>
      <rects>
        <_>
          7 26 28 29 -1.</_>
        <_>
          21 26 14 29 2.</_></rects>
      <tilted>0</tilted></_>
    <_>
      <rects>
        <_>
          7 44 2 18 -1.</_>
        <_>
          8 44 1 18 2.</_></rects>
      <tilted>0</tilted></_>
    <_>
      <rects>
        <_>
          9 45 2 20 -1.</_>
        <_>
          10 45 1 20 2.</_></rects>
      <tilted>0</tilted></_>
    <_>
      <rects>
        <_>
          10 3 38 34 -1.</_>
        <_>
          10 20 38 17 2.</_></rects>
      <tilted>0</tilted></_>
    <_>
      <rects>
        <_>
          10 6 17 58 -1.</_>
        <_>
          10 35 17 29 2.</_></rects>
      <tilted>0</tilted></_>
    <_>
      <rects>
        <_>
          11 1 35 30 -1.</_>
        <_>
          11 16 35 15 2.</_></rects>
      <tilted>0</tilted></_>
    <_>
      <rects>
        <_>
          11 1 37 34 -1.</_>
        <_>
          11 18 37 17 2.</_></rects>
      <tilted>0</tilted></_>
    <_>
      <rects>
        <_>
          12 0 32 27 -1.</_>
        <_>
          12 9 32 9 3.</_></rects>
      <tilted>0</tilted></_>
    <_>
      <rects>
        <_>
          13 29 12 15 -1.</_>
        <_>
          19 29 6 15 2.</_></rects>
      <tilted>0</tilted></_>
    <_>
      <rects>
        <_>
          15 5 6 11 -1.</_>
        <_>
          17 5 2 11 3.</_></rects>
      <tilted>0</tilted></_>
    <_>
      <rects>
        <_>
          16 0 12 54 -1.</_>
        <_>
          16 27 12 27 2.</_></rects>
      <tilted>0</tilted></_>
    <_>
      <rects>
        <_>
          17 3 2 15 -1.</_>
        <_>
          17 8 2 5 3.</_></rects>
      <tilted>0</tilted></_>
    <_>
      <rects>
        <_>
          18 29 9 17 -1.</_>
        <_>
          21 29 3 17 3.</_></rects>
      <tilted>0</tilted></_>
    <_>
      <rects>
        <_>
          18 49 18 8 -1.</_>
        <_>
          18 53 18 4 2.</_></rects>
      <tilted>0</tilted></_>
    <_>
      <rects>
        <_>
          19 0 24 54 -1.</_>
        <_>
          19 27 24 27 2.</_></rects>
      <tilted>0</tilted></_>
    <_>
      <rects>
        <_>
          21 0 6 63 -1.</_>
        <_>
          21 21 6 21 3.</_></rects>
      <tilted>0</tilted></_>
    <_>
      <rects>
        <_>
          21 21 7 24 -1.</_>
        <_>
          21 29 7 8 3.</_></rects>
      <tilted>0</tilted></_>
    <_>
      <rects>
        <_>
          21 45 16 20 -1.</_>
        <_>
          21 45 8 10 2.</_>
        <_>
          29 55 8 10 2.</_></rects>
      <tilted>0</tilted></_>
    <_>
      <rects>
        <_>
          22 2 3 3 -1.</_>
        <_>
          23 2 1 3 3.</_></rects>
      <tilted>0</tilted></_>
    <_>
      <rects>
        <_>
          22 26 20 20 -1.</_>
        <_>
          32 26 10 20 2.</_></rects>
      <tilted>0</tilted></_>
    <_>
      <rects>
        <_>
          23 0 5 58 -1.</_>
        <_>
          23 29 5 29 2.</_></rects>
      <tilted>0</tilted></_>
    <_>
      <rects>
        <_>
          23 3 2 5 -1.</_>
        <_>
          24 3 1 5 2.</_></rects>
      <tilted>0</tilted></_>
    <_>
      <rects>
        <_>
          23 57 3 7 -1.</_>
        <_>
          24 57 1 7 3.</_></rects>
      <tilted>0</tilted></_>
    <_>
      <rects>
        <_>
          24 1 25 42 -1.</_>
        <_>
          24 22 25 21 2.</_></rects>
      <tilted>0</tilted></_>
    <_>
      <rects>
        <_>
          24 49 15 11 -1.</_>
        <_>
          29 49 5 11 3.</_></rects>
      <tilted>0</tilted></_>
    <_>
      <rects>
        <_>
          24 57 4 8 -1.</_>
        <_>
          26 57 2 8 2.</_></rects>
      <tilted>0</tilted></_>
    <_>
      <rects>
        <_>
          25 42 21 22 -1.</_>
        <_>
          32 42 7 22 3.</_></rects>
      <tilted>0</tilted></_>
    <_>
      <rects>
        <_>
          25 63 21 1 -1.</_>
        <_>
          32 63 7 1 3.</_></rects>
      <tilted>0</tilted></_>
    <_>
      <rects>
        <_>
          26 9 2 54 -1.</_>
        <_>
          26 27 2 18 3.</_></rects>
      <tilted>0</tilted></_>
    <_>
      <rects>
        <_>
          26 45 3 12 -1.</_>
        <_>
          26 51 3 6 2.</_></rects>
      <tilted>0</tilted></_>
    <_>
      <rects>
        <_>
          27 48 2 8 -1.</_>
        <_>
          27 52 2 4 2.</_></rects>
      <tilted>0</tilted></_>
    <_>
      <rects>
        <_>
          29 51 10 14 -1.</_>
        <_>
          29 58 10 7 2.</_></rects>
      <tilted>0</tilted></_>
    <_>
      <rects>
        <_>
          30 2 13 52 -1.</_>
        <_>
          30 28 13 26 2.</_></rects>
      <tilted>0</tilted></_>
    <_>
      <rects>
        <_>
          31 5 6 12 -1.</_>
        <_>
          33 5 2 12 3.</_></rects>
      <tilted>0</tilted></_>
    <_>
      <rects>
        <_>
          31 17 14 48 -1.</_>
        <_>
          31 33 14 16 3.</_></rects>
      <tilted>0</tilted></_>
    <_>
      <rects>
        <_>
          31 53 18 12 -1.</_>
        <_>
          31 53 9 6 2.</_>
        <_>
          40 59 9 6 2.</_></rects>
      <tilted>0</tilted></_>
    <_>
      <rects>
        <_>
          33 5 10 1 -1.</_>
        <_>
          38 5 5 1 2.</_></rects>
      <tilted>0</tilted></_>
    <_>
      <rects>
        <_>
          33 23 16 30 -1.</_>
        <_>
          33 33 16 10 3.</_></rects>
      <tilted>0</tilted></_>
    <_>
      <rects>
        <_>
          33 61 15 3 -1.</_>
        <_>
          38 61 5 3 3.</_></rects>
      <tilted>0</tilted></_>
    <_>
      <rects>
        <_>
          35 44 4 6 -1.</_>
        <_>
          35 47 4 3 2.</_></rects>
      <tilted>0</tilted></_>
    <_>
      <rects>
        <_>
          37 1 9 26 -1.</_>
        <_>
          40 1 3 26 3.</_></rects>
      <tilted>0</tilted></_>
    <_>
      <rects>
        <_>
          37 38 12 25 -1.</_>
        <_>
          43 38 6 25 2.</_></rects>
      <tilted>0</tilted></_>
    <_>
      <rects>
        <_>
          39 4 9 61 -1.</_>
        <_>
          42 4 3 61 3.</_></rects>
      <tilted>0</tilted></_>
    <_>
      <rects>
        <_>
          39 8 10 23 -1.</_>
        <_>
          44 8 5 23 2.</_></rects>
      <tilted>0</tilted></_>
    <_>
      <rects>
        <_>
          39 29 4 34 -1.</_>
        <_>
          39 29 2 17 2.</_>
        <_>
          41 46 2 17 2.</_></rects>
      <tilted>0</tilted></_>
    <_>
      <rects>
        <_>
          40 1 9 33 -1.</_>
        <_>
          43 1 3 33 3.</_></rects>
      <tilted>0</tilted></_>
    <_>
      <rects>
        <_>
          40 2 4 26 -1.</_>
        <_>
          42 2 2 26 2.</_></rects>
      <tilted>0</tilted></_>
    <_>
      <rects>
        <_>
          40 32 9 33 -1.</_>
        <_>
          43 32 3 33 3.</_></rects>
      <tilted>0</tilted></_>
    <_>
      <rects>
        <_>
          40 41 2 24 -1.</_>
        <_>
          40 53 2 12 2.</_></rects>
      <tilted>0</tilted></_>
    <_>
      <rects>
        <_>
          42 0 4 15 -1.</_>
        <_>
          42 5 4 5 3.</_></rects>
      <tilted>0</tilted></_>
    <_>
      <rects>
        <_>
          43 36 2 29 -1.</_>
        <_>
          44 36 1 29 2.</_></rects>
      <tilted>0</tilted></_>
    <_>
      <rects>
        <_>
          44 36 4 29 -1.</_>
        <_>
          46 36 2 29 2.</_></rects>
      <tilted>0</tilted></_>
    <_>
      <rects>
        <_>
          44 45 2 1 -1.</_>
        <_>
          45 45 1 1 2.</_></rects>
      <tilted>0</tilted></_>
    <_>
      <rects>
        <_>
          45 1 3 3 -1.</_>
        <_>
          46 1 1 3 3.</_></rects>
      <tilted>0</tilted></_>
    <_>
      <rects>
        <_>
          45 23 2 1 -1.</_>
        <_>
          46 23 1 1 2.</_></rects>
      <tilted>0</tilted></_>
    <_>
      <rects>
        <_>
          46 0 3 14 -1.</_>
        <_>
          47 0 1 14 3.</_></rects>
      <tilted>0</tilted></_>
    <_>
      <rects>
        <_>
          46 44 2 1 -1.</_>
        <_>
          47 44 1 1 2.</_></rects>
      <tilted>0</tilted></_>
    <_>
      <rects>
        <_>
          46 55 3 3 -1.</_>
        <_>
          47 55 1 3 3.</_></rects>
      <tilted>0</tilted></_>
    <_>
      <rects>
        <_>
          47 60 2 4 -1.</_>
        <_>
          48 60 1 4 2.</_></rects>
      <tilted>0</tilted></_></features></cascade>
</opencv_storage>
