<?xml version="1.0"?>
<opencv_storage>
<cascade>
  <stageType>BOOST</stageType>
  <featureType>LBP</featureType>
  <height>98</height>
  <width>73</width>
  <stageParams>
    <boostType>GAB</boostType>
    <minHitRate>9.9500000476837158e-01</minHitRate>
    <maxFalseAlarm>5.0000000000000000e-01</maxFalseAlarm>
    <weightTrimRate>9.4999999999999996e-01</weightTrimRate>
    <maxDepth>1</maxDepth>
    <maxWeakCount>100</maxWeakCount></stageParams>
  <featureParams>
    <maxCatCount>256</maxCatCount>
    <featSize>1</featSize></featureParams>
  <stageNum>17</stageNum>
  <stages>
    <!-- stage 0 -->
    <_>
      <maxWeakCount>2</maxWeakCount>
      <stageThreshold>-3.1216421723365784e-01</stageThreshold>
      <weakClassifiers>
        <_>
          <internalNodes>
            0 -1 19 526381055 2136470495 -149825539 1610601941 -81136657
            934298249 -610731016 2003923312</internalNodes>
          <leafValues>
            -8.5737705230712891e-01 5.8764046430587769e-01</leafValues></_>
        <_>
          <internalNodes>
            0 -1 23 -1630152337 -289205169 -62661897 -1363757133
            -1819320461 -551560915 -73733257 -4719755</internalNodes>
          <leafValues>
            -7.0339107513427734e-01 5.4521280527114868e-01</leafValues></_></weakClassifiers></_>
    <!-- stage 1 -->
    <_>
      <maxWeakCount>4</maxWeakCount>
      <stageThreshold>-4.3650227785110474e-01</stageThreshold>
      <weakClassifiers>
        <_>
          <internalNodes>
            0 -1 48 -2105635 -1646808601 -753163297 248246423 -221258516
            -15211637 -1198401148 -2003764275</internalNodes>
          <leafValues>
            -7.2429907321929932e-01 5.4195803403854370e-01</leafValues></_>
        <_>
          <internalNodes>
            0 -1 69 -303040721 214692251 -543293454 1627059679
            -242353153 1139788575 -102760492 -185139276</internalNodes>
          <leafValues>
            -7.2157037258148193e-01 5.2871251106262207e-01</leafValues></_>
        <_>
          <internalNodes>
            0 -1 10 1876900847 -1431580449 -669279242 -224464058
            2139704167 1740099183 -7605647 -136839183</internalNodes>
          <leafValues>
            -7.4796730279922485e-01 5.0937527418136597e-01</leafValues></_>
        <_>
          <internalNodes>
            0 -1 71 -289456325 715776333 1364295766 -1459886241
            2024003636 -1467496248 -771364848 -992609028</internalNodes>
          <leafValues>
            -7.5029104948043823e-01 5.1676160097122192e-01</leafValues></_></weakClassifiers></_>
    <!-- stage 2 -->
    <_>
      <maxWeakCount>4</maxWeakCount>
      <stageThreshold>-4.7519555687904358e-01</stageThreshold>
      <weakClassifiers>
        <_>
          <internalNodes>
            0 -1 39 -1345373185 -276827947 2027413054 -19205797
            1670339143 -1092886015 -78644656 -188678188</internalNodes>
          <leafValues>
            -6.9101977348327637e-01 5.3855276107788086e-01</leafValues></_>
        <_>
          <internalNodes>
            0 -1 75 -10487953 115833957 -870793022 -1026623738 -10501308
            1804278275 -494145680 -185209867</internalNodes>
          <leafValues>
            -7.2827464342117310e-01 4.5646139979362488e-01</leafValues></_>
        <_>
          <internalNodes>
            0 -1 54 -10487481 -285483569 1510177246 -488647301
            2077227526 -662184685 -40895627 -59508457</internalNodes>
          <leafValues>
            -7.4206691980361938e-01 4.6098470687866211e-01</leafValues></_>
        <_>
          <internalNodes>
            0 -1 15 1318254975 -119745328 -380317415 -645087182
            1476551292 -120651261 771963774 -25271499</internalNodes>
          <leafValues>
            -6.7460805177688599e-01 5.0142973661422729e-01</leafValues></_></weakClassifiers></_>
    <!-- stage 3 -->
    <_>
      <maxWeakCount>4</maxWeakCount>
      <stageThreshold>-5.2436947822570801e-01</stageThreshold>
      <weakClassifiers>
        <_>
          <internalNodes>
            0 -1 38 666836863 -1555066482 -687615748 -222103186
            -640856492 -649352742 -626083468 -53412880</internalNodes>
          <leafValues>
            -7.1698111295700073e-01 4.5583423972129822e-01</leafValues></_>
        <_>
          <internalNodes>
            0 -1 24 216719102 924777146 -267928107 -573726117 1756560348
            -145027545 859869179 2003251571</internalNodes>
          <leafValues>
            -7.9793369770050049e-01 3.9138507843017578e-01</leafValues></_>
        <_>
          <internalNodes>
            0 -1 82 -71565517 780302295 -644657040 -1403006667
            -389285220 -371275761 -529730096 -855638020</internalNodes>
          <leafValues>
            -6.0404425859451294e-01 5.2305448055267334e-01</leafValues></_>
        <_>
          <internalNodes>
            0 -1 59 719007531 63920595 1175687351 -421594239 1510954095
            2146131969 -358026399 -355141168</internalNodes>
          <leafValues>
            -6.8822723627090454e-01 4.6749088168144226e-01</leafValues></_></weakClassifiers></_>
    <!-- stage 4 -->
    <_>
      <maxWeakCount>4</maxWeakCount>
      <stageThreshold>-5.3926086425781250e-01</stageThreshold>
      <weakClassifiers>
        <_>
          <internalNodes>
            0 -1 45 -77767401 987174391 -181273165 -287452267 -205677242
            -829452205 -128320688 -185336993</internalNodes>
          <leafValues>
            -6.5544241666793823e-01 4.8578062653541565e-01</leafValues></_>
        <_>
          <internalNodes>
            0 -1 58 -1208354884 -1122278049 -1856944693 398981335
            -232066072 -1315716817 1984883164 -2070087172</internalNodes>
          <leafValues>
            -8.4215933084487915e-01 3.5643929243087769e-01</leafValues></_>
        <_>
          <internalNodes>
            0 -1 65 -101974221 -1374776205 -377358000 -87690529
            -275908826 -2012227558 -913325356 -1069557010</internalNodes>
          <leafValues>
            -6.2066340446472168e-01 4.8842930793762207e-01</leafValues></_>
        <_>
          <internalNodes>
            0 -1 81 641677115 541258690 1417728324 -293083433 -251137031
            -1307959277 -471080272 -323354884</internalNodes>
          <leafValues>
            -6.5101361274719238e-01 4.6991157531738281e-01</leafValues></_></weakClassifiers></_>
    <!-- stage 5 -->
    <_>
      <maxWeakCount>4</maxWeakCount>
      <stageThreshold>-5.6472074985504150e-01</stageThreshold>
      <weakClassifiers>
        <_>
          <internalNodes>
            0 -1 55 -2393227 -1512581239 1209431582 582482431 -62129344
            -784562072 -3440778 -53019777</internalNodes>
          <leafValues>
            -6.2618297338485718e-01 4.5842957496643066e-01</leafValues></_>
        <_>
          <internalNodes>
            0 -1 2 531824622 1539503326 -779107873 1994183790 350691947
            -628423797 1912828791 -44556</internalNodes>
          <leafValues>
            -6.6840612888336182e-01 4.1188478469848633e-01</leafValues></_>
        <_>
          <internalNodes>
            0 -1 76 -1084246109 -290731533 1502544997 -321955965
            -1815885065 -519798613 -652281615 -1060832548</internalNodes>
          <leafValues>
            -5.9269297122955322e-01 4.6464577317237854e-01</leafValues></_>
        <_>
          <internalNodes>
            0 -1 1 979242206 1369267079 1073840535 1930264520 835350505
            1754235019 326073087 -72124556</internalNodes>
          <leafValues>
            -8.1506836414337158e-01 3.6116972565650940e-01</leafValues></_></weakClassifiers></_>
    <!-- stage 6 -->
    <_>
      <maxWeakCount>4</maxWeakCount>
      <stageThreshold>-5.6976777315139771e-01</stageThreshold>
      <weakClassifiers>
        <_>
          <internalNodes>
            0 -1 4 -1430081809 -421077170 -767458961 -356073232
            183716323 -355263597 1250849523 -33555756</internalNodes>
          <leafValues>
            -5.9655982255935669e-01 4.4334688782691956e-01</leafValues></_>
        <_>
          <internalNodes>
            0 -1 30 -53504592 1344251327 -1859419187 997965983
            -888034868 -1550876533 -68626183 167099285</internalNodes>
          <leafValues>
            -7.8803861141204834e-01 3.2687094807624817e-01</leafValues></_>
        <_>
          <internalNodes>
            0 -1 33 801103739 -1478768814 1519515122 -539043391
            -1414833307 -107240722 -202843804 -74648332</internalNodes>
          <leafValues>
            -5.6320238113403320e-01 4.6464118361473083e-01</leafValues></_>
        <_>
          <internalNodes>
            0 -1 70 -1136672975 144119081 -1048458863 -824241195
            -510723530 -911634297 -611329803 -923404056</internalNodes>
          <leafValues>
            -6.8971723318099976e-01 4.0134459733963013e-01</leafValues></_></weakClassifiers></_>
    <!-- stage 7 -->
    <_>
      <maxWeakCount>5</maxWeakCount>
      <stageThreshold>-9.2835694551467896e-01</stageThreshold>
      <weakClassifiers>
        <_>
          <internalNodes>
            0 -1 7 215907551 1115914271 -922577761 1969220063 1180846612
            -351584237 1796635455 2066185015</internalNodes>
          <leafValues>
            -7.9741376638412476e-01 3.5714286565780640e-01</leafValues></_>
        <_>
          <internalNodes>
            0 -1 3 -1496338433 1716410698 -1055059619 -964963945
            -1047282817 -99942194 135877367 -17825817</internalNodes>
          <leafValues>
            -5.4959070682525635e-01 4.9665507674217224e-01</leafValues></_>
        <_>
          <internalNodes>
            0 -1 12 -136315089 1078645267 1557598343 1626494411
            -78749865 -510941157 -635708417 -50332801</internalNodes>
          <leafValues>
            -4.7861793637275696e-01 5.5735993385314941e-01</leafValues></_>
        <_>
          <internalNodes>
            0 -1 51 392734096 -1789819436 -134033275 806371601
            -1188461829 -1115651379 856808957 -851789652</internalNodes>
          <leafValues>
            -6.2413191795349121e-01 4.5696321129798889e-01</leafValues></_>
        <_>
          <internalNodes>
            0 -1 11 -356810001 -354688693 -2130128214 1611322706
            1896052331 2022251019 -133184699 -134743053</internalNodes>
          <leafValues>
            -5.9567558765411377e-01 4.2833623290061951e-01</leafValues></_></weakClassifiers></_>
    <!-- stage 8 -->
    <_>
      <maxWeakCount>6</maxWeakCount>
      <stageThreshold>-8.3361512422561646e-01</stageThreshold>
      <weakClassifiers>
        <_>
          <internalNodes>
            0 -1 5 685944559 147243896 -994590647 -436020996 25916671
            1605599907 2144056051 -12</internalNodes>
          <leafValues>
            -6.0467058420181274e-01 4.0255412459373474e-01</leafValues></_>
        <_>
          <internalNodes>
            0 -1 34 2044685279 -857844329 1229980111 -1896220001
            1269528391 -108345016 -605325441 -211392682</internalNodes>
          <leafValues>
            -5.6624543666839600e-01 4.0936005115509033e-01</leafValues></_>
        <_>
          <internalNodes>
            0 -1 56 126814995 262140208 -738074287 -894738475
            -1978709257 -342902255 -1633945231 -71372300</internalNodes>
          <leafValues>
            -5.8215892314910889e-01 4.1425988078117371e-01</leafValues></_>
        <_>
          <internalNodes>
            0 -1 49 -1453371648 -1491107361 402952441 861577659
            -1840621455 -619728349 -1831458454 -1159530247</internalNodes>
          <leafValues>
            -6.1579650640487671e-01 4.1622573137283325e-01</leafValues></_>
        <_>
          <internalNodes>
            0 -1 74 -1145599440 291500051 -1831747333 651382871
            -1007956836 -1023197117 -476147003 -1996690706</internalNodes>
          <leafValues>
            -7.4089014530181885e-01 3.0146580934524536e-01</leafValues></_>
        <_>
          <internalNodes>
            0 -1 27 -1533357706 2102710718 1050936 -589429986 1132821230
            419663917 -2096977181 1930060418</internalNodes>
          <leafValues>
            -7.6985299587249756e-01 2.9958179593086243e-01</leafValues></_></weakClassifiers></_>
    <!-- stage 9 -->
    <_>
      <maxWeakCount>6</maxWeakCount>
      <stageThreshold>-4.7723108530044556e-01</stageThreshold>
      <weakClassifiers>
        <_>
          <internalNodes>
            0 -1 9 714056399 -847068082 1495832048 1939653104 558563951
            798720066 1521279301 -478754972</internalNodes>
          <leafValues>
            -6.5371024608612061e-01 3.9614561200141907e-01</leafValues></_>
        <_>
          <internalNodes>
            0 -1 37 667892671 -1550138541 436469777 -1530467511
            2139179135 -725638972 -594818464 -50528844</internalNodes>
          <leafValues>
            -6.0394781827926636e-01 4.4183459877967834e-01</leafValues></_>
        <_>
          <internalNodes>
            0 -1 17 -670505720 387088625 1090589213 488100302 153325803
            587333643 1828995487 -1692973619</internalNodes>
          <leafValues>
            -5.5813628435134888e-01 4.7993054986000061e-01</leafValues></_>
        <_>
          <internalNodes>
            0 -1 61 796592859 -4292613 -134284361 -1076445255 1038809854
            -134217731 -1627457579 -716120588</internalNodes>
          <leafValues>
            -5.0127530097961426e-01 5.9211415052413940e-01</leafValues></_>
        <_>
          <internalNodes>
            0 -1 31 270945535 -1416904254 -1073692074 -2146582263
            1914326063 -1985755006 -762675515 -93005467</internalNodes>
          <leafValues>
            -6.1203974485397339e-01 4.6565195918083191e-01</leafValues></_>
        <_>
          <internalNodes>
            0 -1 67 -950053617 -962785267 1342279859 -904128419
            -1020265168 671930 -922047680 -866401293</internalNodes>
          <leafValues>
            -6.8182682991027832e-01 4.4404262304306030e-01</leafValues></_></weakClassifiers></_>
    <!-- stage 10 -->
    <_>
      <maxWeakCount>6</maxWeakCount>
      <stageThreshold>-1.4420566558837891e+00</stageThreshold>
      <weakClassifiers>
        <_>
          <internalNodes>
            0 -1 53 -111184297 -1739075361 -2008738721 715756447
            -274023600 -81559381 -1142246365 -1157958901</internalNodes>
          <leafValues>
            -5.5375552177429199e-01 4.5797806978225708e-01</leafValues></_>
        <_>
          <internalNodes>
            0 -1 83 1051976563 1691402963 1091027229 -295906409
            1933683683 -1593671581 -682894476 -995820079</internalNodes>
          <leafValues>
            -6.0266238451004028e-01 3.5852321982383728e-01</leafValues></_>
        <_>
          <internalNodes>
            0 -1 25 -755204129 -900684593 -984157985 1119141967
            -1022659760 -838399960 -272376959 -66585921</internalNodes>
          <leafValues>
            -4.8963370919227600e-01 4.4788864254951477e-01</leafValues></_>
        <_>
          <internalNodes>
            0 -1 47 679114325 -1126344699 553699935 -291711936 697952491
            -934646965 579486405 -320312268</internalNodes>
          <leafValues>
            -6.0037344694137573e-01 3.9953950047492981e-01</leafValues></_>
        <_>
          <internalNodes>
            0 -1 6 567751611 1108263186 1124423942 -284102188 1912830279
            2073275195 1803775970 -147851675</internalNodes>
          <leafValues>
            -5.9174478054046631e-01 3.8280898332595825e-01</leafValues></_>
        <_>
          <internalNodes>
            0 -1 35 33495639 705811486 -2105391657 -564690044
            -2002042311 -83656295 -91828319 -91689996</internalNodes>
          <leafValues>
            -6.1553335189819336e-01 3.6606439948081970e-01</leafValues></_></weakClassifiers></_>
    <!-- stage 11 -->
    <_>
      <maxWeakCount>6</maxWeakCount>
      <stageThreshold>-1.4701038599014282e+00</stageThreshold>
      <weakClassifiers>
        <_>
          <internalNodes>
            0 -1 79 245309715 559661067 -1052786469 -1103306283
            -536769583 -904753011 -1971760495 -54985820</internalNodes>
          <leafValues>
            -5.8778625726699829e-01 4.5562130212783813e-01</leafValues></_>
        <_>
          <internalNodes>
            0 -1 66 -142086719 1888602101 -1333493252 1948061953
            -1073559529 -1727987570 -645705472 -55465189</internalNodes>
          <leafValues>
            -5.1828759908676147e-01 5.2272164821624756e-01</leafValues></_>
        <_>
          <internalNodes>
            0 -1 46 210111103 -1364995725 -1070919401 -2045734578
            -1060317361 -229801813 -1064768884 -877912464</internalNodes>
          <leafValues>
            -6.1085426807403564e-01 4.5229157805442810e-01</leafValues></_>
        <_>
          <internalNodes>
            0 -1 41 563742207 -352288512 285458452 -1815965693
            -2147280891 -1381365754 -1341857711 -107680272</internalNodes>
          <leafValues>
            -6.6636741161346436e-01 4.5096772909164429e-01</leafValues></_>
        <_>
          <internalNodes>
            0 -1 14 197307173 -447463414 402755693 1359366364 463604295
            -1056194401 268589731 -210017566</internalNodes>
          <leafValues>
            -6.1209142208099365e-01 4.5498597621917725e-01</leafValues></_>
        <_>
          <internalNodes>
            0 -1 57 194978457 730927317 151339419 -1038855017 2032345199
            -389312504 -1604310891 -287513875</internalNodes>
          <leafValues>
            -6.3306123018264771e-01 4.4671809673309326e-01</leafValues></_></weakClassifiers></_>
    <!-- stage 12 -->
    <_>
      <maxWeakCount>6</maxWeakCount>
      <stageThreshold>-1.3728996515274048e+00</stageThreshold>
      <weakClassifiers>
        <_>
          <internalNodes>
            0 -1 40 1795059582 1786943958 1351008279 -2065772016
            -968876986 -1182023544 -627864985 -2147347455</internalNodes>
          <leafValues>
            -7.4650913476943970e-01 3.3591106534004211e-01</leafValues></_>
        <_>
          <internalNodes>
            0 -1 20 1725139919 1880346690 -1073145640 377399665
            688085022 503515139 -1736248880 -42861708</internalNodes>
          <leafValues>
            -5.7812011241912842e-01 4.3201684951782227e-01</leafValues></_>
        <_>
          <internalNodes>
            0 -1 62 -640164557 -497331967 -802389349 1241756011
            1477238593 1672069512 1722294273 -157318477</internalNodes>
          <leafValues>
            -5.7041347026824951e-01 4.4332388043403625e-01</leafValues></_>
        <_>
          <internalNodes>
            0 -1 36 -1367330767 553914756 -1862188327 1539354836
            694927676 -367362047 1076646539 -811217835</internalNodes>
          <leafValues>
            -5.6414186954498291e-01 5.1701426506042480e-01</leafValues></_>
        <_>
          <internalNodes>
            0 -1 60 -1087670891 -1249274928 336095513 -216887143
            -2038249302 571050112 1023600125 -654780192</internalNodes>
          <leafValues>
            -5.0365382432937622e-01 5.2582073211669922e-01</leafValues></_>
        <_>
          <internalNodes>
            0 -1 22 -1007255665 1176768515 -1054817159 -2131718120
            -711645072 690241805 -1476032124 -1961122597</internalNodes>
          <leafValues>
            -5.7363760471343994e-01 5.0199770927429199e-01</leafValues></_></weakClassifiers></_>
    <!-- stage 13 -->
    <_>
      <maxWeakCount>6</maxWeakCount>
      <stageThreshold>-6.2799322605133057e-01</stageThreshold>
      <weakClassifiers>
        <_>
          <internalNodes>
            0 -1 50 -1644713504 -1857843180 528396 1933649221
            -2013034001 -1802862391 -1467885381 1100552379</internalNodes>
          <leafValues>
            -6.4746946096420288e-01 4.0021574497222900e-01</leafValues></_>
        <_>
          <internalNodes>
            0 -1 64 -7760079 1813453832 17387665 -719644591 1779087567
            -1584791414 -1870034711 -2079064914</internalNodes>
          <leafValues>
            -4.8759952187538147e-01 5.0830984115600586e-01</leafValues></_>
        <_>
          <internalNodes>
            0 -1 26 496280733 286998665 -904019891 965574979 -2113171317
            596119681 -644248866 1969332793</internalNodes>
          <leafValues>
            -7.7123558521270752e-01 3.4515425562858582e-01</leafValues></_>
        <_>
          <internalNodes>
            0 -1 42 -921992943 218787959 -1593765578 -1123168242
            -2104915883 285311133 1212357225 -1664639317</internalNodes>
          <leafValues>
            -5.4313349723815918e-01 4.8610723018646240e-01</leafValues></_>
        <_>
          <internalNodes>
            0 -1 80 -1768718565 572626083 -2121113260 -524160959
            -91688384 556417273 -1551789536 -44443140</internalNodes>
          <leafValues>
            -6.2873363494873047e-01 4.4449543952941895e-01</leafValues></_>
        <_>
          <internalNodes>
            0 -1 8 -1568677369 -1018896246 1141014674 -1384068980
            164179969 1075890216 547518816 -88953965</internalNodes>
          <leafValues>
            -6.0971933603286743e-01 4.2502835392951965e-01</leafValues></_></weakClassifiers></_>
    <!-- stage 14 -->
    <_>
      <maxWeakCount>6</maxWeakCount>
      <stageThreshold>-1.3770384788513184e+00</stageThreshold>
      <weakClassifiers>
        <_>
          <internalNodes>
            0 -1 68 1024919735 1634693266 1241747846 -759708525
            -515999471 -116576238 -803153035 -18552656</internalNodes>
          <leafValues>
            -5.2322405576705933e-01 4.9869790673255920e-01</leafValues></_>
        <_>
          <internalNodes>
            0 -1 16 -1435529681 -1377173761 -1073742852 -286392321
            -344177588 -136454273 -1073774730 -77244601</internalNodes>
          <leafValues>
            -4.9502849578857422e-01 5.3076416254043579e-01</leafValues></_>
        <_>
          <internalNodes>
            0 -1 78 1066342233 50790667 -2012838905 -992829369
            -796686389 -1958280565 254437004 -355926175</internalNodes>
          <leafValues>
            -5.8458095788955688e-01 4.9536335468292236e-01</leafValues></_>
        <_>
          <internalNodes>
            0 -1 28 580321399 -1424762877 -2122014654 1757856208
            1373321487 -893876135 -1151808704 -60493836</internalNodes>
          <leafValues>
            -6.5669363737106323e-01 4.0512627363204956e-01</leafValues></_>
        <_>
          <internalNodes>
            0 -1 72 -590613407 -779026407 1082757121 583172608
            1644823046 2039152899 1946213360 -1963086911</internalNodes>
          <leafValues>
            -5.8050054311752319e-01 4.9100199341773987e-01</leafValues></_>
        <_>
          <internalNodes>
            0 -1 63 -1074816256 -1983414199 8622082 -925253498
            -268226493 -2010710006 -2080003509 -2062618514</internalNodes>
          <leafValues>
            -6.7033320665359497e-01 4.1954043507575989e-01</leafValues></_></weakClassifiers></_>
    <!-- stage 15 -->
    <_>
      <maxWeakCount>6</maxWeakCount>
      <stageThreshold>-7.0003807544708252e-01</stageThreshold>
      <weakClassifiers>
        <_>
          <internalNodes>
            0 -1 13 -1501395722 1275220161 -802957165 -316976805
            -1304197081 -1905553280 1346072823 -910469929</internalNodes>
          <leafValues>
            -5.2211129665374756e-01 4.5807260274887085e-01</leafValues></_>
        <_>
          <internalNodes>
            0 -1 77 936852787 -442312762 -381089777 -466125637 30395807
            1133223947 -1576297751 -19336748</internalNodes>
          <leafValues>
            -4.9132946133613586e-01 4.7835546731948853e-01</leafValues></_>
        <_>
          <internalNodes>
            0 -1 0 -1272286946 1368674392 -2147352354 -652803880
            1074438347 679542795 554648154 994005200</internalNodes>
          <leafValues>
            -7.4454987049102783e-01 3.2932466268539429e-01</leafValues></_>
        <_>
          <internalNodes>
            0 -1 73 302582867 528945937 -402554877 1112163803 541131070
            -618840063 -896851407 -296422532</internalNodes>
          <leafValues>
            -6.1402618885040283e-01 4.2653936147689819e-01</leafValues></_>
        <_>
          <internalNodes>
            0 -1 52 -1416671728 -720757488 17892693 534270025 -939491093
            807092298 288066021 1335550156</internalNodes>
          <leafValues>
            -5.8972603082656860e-01 4.2450508475303650e-01</leafValues></_>
        <_>
          <internalNodes>
            0 -1 44 794758327 -1601155069 135266759 -1940503281
            2068328704 -1282822902 -393569743 -25667452</internalNodes>
          <leafValues>
            -7.2872960567474365e-01 3.3198940753936768e-01</leafValues></_></weakClassifiers></_>
    <!-- stage 16 -->
    <_>
      <maxWeakCount>5</maxWeakCount>
      <stageThreshold>-6.8120568990707397e-01</stageThreshold>
      <weakClassifiers>
        <_>
          <internalNodes>
            0 -1 29 -1347212251 -276906497 -32769 -196609 -25231489
            -526345 -167786661 -1933111365</internalNodes>
          <leafValues>
            -4.4057622551918030e-01 5.5022490024566650e-01</leafValues></_>
        <_>
          <internalNodes>
            0 -1 18 -355472931 1745854914 -784328225 -489765482
            319127871 -75497461 1208033447 -284699718</internalNodes>
          <leafValues>
            -4.8790121078491211e-01 4.8201107978820801e-01</leafValues></_>
        <_>
          <internalNodes>
            0 -1 32 203293675 -1820456704 -2012610347 -471940928
            -1744123473 -1111832429 411615335 -741540559</internalNodes>
          <leafValues>
            -4.7978341579437256e-01 5.0195682048797607e-01</leafValues></_>
        <_>
          <internalNodes>
            0 -1 43 -1383443879 -377662571 16827419 -1919623060 67289246
            1102073988 948671421 430653687</internalNodes>
          <leafValues>
            -5.7028621435165405e-01 4.1150018572807312e-01</leafValues></_>
        <_>
          <internalNodes>
            0 -1 21 7144175 6094999 1078281166 1107313098 1887461196
            1644363778 -1742540368 2048209493</internalNodes>
          <leafValues>
            -6.5435731410980225e-01 4.0091198682785034e-01</leafValues></_></weakClassifiers></_></stages>
  <features>
    <_>
      <rect>
        0 0 12 18</rect></_>
    <_>
      <rect>
        0 5 13 29</rect></_>
    <_>
      <rect>
        0 6 9 18</rect></_>
    <_>
      <rect>
        0 10 8 5</rect></_>
    <_>
      <rect>
        0 14 8 6</rect></_>
    <_>
      <rect>
        0 21 8 4</rect></_>
    <_>
      <rect>
        0 24 6 5</rect></_>
    <_>
      <rect>
        0 35 13 21</rect></_>
    <_>
      <rect>
        0 36 3 4</rect></_>
    <_>
      <rect>
        0 41 6 5</rect></_>
    <_>
      <rect>
        0 50 9 2</rect></_>
    <_>
      <rect>
        0 52 5 3</rect></_>
    <_>
      <rect>
        0 76 9 5</rect></_>
    <_>
      <rect>
        1 5 6 8</rect></_>
    <_>
      <rect>
        1 6 7 9</rect></_>
    <_>
      <rect>
        1 49 16 16</rect></_>
    <_>
      <rect>
        1 61 5 8</rect></_>
    <_>
      <rect>
        2 7 17 12</rect></_>
    <_>
      <rect>
        2 8 7 4</rect></_>
    <_>
      <rect>
        2 12 22 24</rect></_>
    <_>
      <rect>
        2 55 5 4</rect></_>
    <_>
      <rect>
        3 56 6 5</rect></_>
    <_>
      <rect>
        3 77 6 5</rect></_>
    <_>
      <rect>
        3 77 12 3</rect></_>
    <_>
      <rect>
        4 36 19 20</rect></_>
    <_>
      <rect>
        4 84 6 4</rect></_>
    <_>
      <rect>
        6 6 22 27</rect></_>
    <_>
      <rect>
        7 61 22 12</rect></_>
    <_>
      <rect>
        10 45 2 2</rect></_>
    <_>
      <rect>
        12 0 14 9</rect></_>
    <_>
      <rect>
        12 1 19 20</rect></_>
    <_>
      <rect>
        12 58 6 4</rect></_>
    <_>
      <rect>
        13 29 4 3</rect></_>
    <_>
      <rect>
        13 34 3 3</rect></_>
    <_>
      <rect>
        13 76 11 7</rect></_>
    <_>
      <rect>
        14 43 2 2</rect></_>
    <_>
      <rect>
        15 20 7 5</rect></_>
    <_>
      <rect>
        15 37 2 3</rect></_>
    <_>
      <rect>
        16 42 4 3</rect></_>
    <_>
      <rect>
        16 46 5 2</rect></_>
    <_>
      <rect>
        16 69 8 8</rect></_>
    <_>
      <rect>
        18 44 4 3</rect></_>
    <_>
      <rect>
        19 2 14 11</rect></_>
    <_>
      <rect>
        19 49 10 8</rect></_>
    <_>
      <rect>
        19 64 3 2</rect></_>
    <_>
      <rect>
        22 0 17 4</rect></_>
    <_>
      <rect>
        24 61 2 3</rect></_>
    <_>
      <rect>
        27 70 7 7</rect></_>
    <_>
      <rect>
        28 0 15 20</rect></_>
    <_>
      <rect>
        28 7 9 9</rect></_>
    <_>
      <rect>
        31 51 14 14</rect></_>
    <_>
      <rect>
        32 50 12 12</rect></_>
    <_>
      <rect>
        35 56 8 6</rect></_>
    <_>
      <rect>
        36 3 9 7</rect></_>
    <_>
      <rect>
        36 9 12 3</rect></_>
    <_>
      <rect>
        38 8 10 6</rect></_>
    <_>
      <rect>
        38 51 6 4</rect></_>
    <_>
      <rect>
        39 47 3 2</rect></_>
    <_>
      <rect>
        40 1 11 28</rect></_>
    <_>
      <rect>
        44 47 3 2</rect></_>
    <_>
      <rect>
        44 58 4 4</rect></_>
    <_>
      <rect>
        44 65 3 3</rect></_>
    <_>
      <rect>
        46 0 8 7</rect></_>
    <_>
      <rect>
        46 36 9 20</rect></_>
    <_>
      <rect>
        46 65 9 7</rect></_>
    <_>
      <rect>
        46 74 9 5</rect></_>
    <_>
      <rect>
        49 4 8 7</rect></_>
    <_>
      <rect>
        49 6 8 4</rect></_>
    <_>
      <rect>
        49 27 2 2</rect></_>
    <_>
      <rect>
        49 54 8 2</rect></_>
    <_>
      <rect>
        49 58 8 8</rect></_>
    <_>
      <rect>
        51 65 7 4</rect></_>
    <_>
      <rect>
        52 4 7 12</rect></_>
    <_>
      <rect>
        53 27 2 3</rect></_>
    <_>
      <rect>
        55 20 6 14</rect></_>
    <_>
      <rect>
        55 43 6 2</rect></_>
    <_>
      <rect>
        55 59 6 5</rect></_>
    <_>
      <rect>
        56 51 1 2</rect></_>
    <_>
      <rect>
        57 44 2 4</rect></_>
    <_>
      <rect>
        57 56 3 3</rect></_>
    <_>
      <rect>
        60 48 4 3</rect></_>
    <_>
      <rect>
        60 50 4 4</rect></_>
    <_>
      <rect>
        61 51 4 5</rect></_>
    <_>
      <rect>
        61 56 4 5</rect></_></features></cascade>
</opencv_storage>
